SVM-light Version V6.02
0 # kernel type
3 # kernel parameter -d 
1 # kernel parameter -g 
1 # kernel parameter -s 
1 # kernel parameter -r 
empty# kernel parameter -u 
100 # highest feature index 
1800 # number of training documents 
1069 # number of support vectors plus 1 
0.89104106 # threshold b, each following line is a SV (starting with alpha*y)
-0.051024796714956105470051284100919 1:-0.32672012 2:-0.19593789 3:0.34235254 4:-0.045721535 5:-0.53095496 6:-0.5174247 7:0.01804631 8:0.20638148 9:-0.22510673 10:0.15613644 11:-0.10917009 12:0.15928636 13:0.077113532 14:0.32574844 15:-0.034188565 16:-0.29159665 17:-0.089027159 18:0.069336608 19:-0.027378589 20:0.47289979 21:0.12097076 22:-0.27485868 23:-0.26306394 24:-0.0045833169 25:-0.033447746 26:0.45246112 27:0.1114853 28:-0.26869053 29:0.073812775 30:-0.29167941 31:-0.27877453 32:0.1697271 33:0.34153047 34:0.17692575 35:-0.42365599 36:0.16556835 37:-0.23204413 38:-0.30739534 39:0.2788735 40:0.27825335 41:0.26489645 42:0.2901459 43:-0.018107953 44:0.11608837 45:0.2688373 46:0.13703862 47:-0.29422823 48:-0.41820192 49:0.1776599 50:0.025643632 51:0.23444125 52:0.23202747 53:-0.65731061 54:0.18015295 55:-0.40984136 56:0.66263318 57:-0.38708609 58:0.032094415 59:-0.65511274 60:0.38230851 61:0.028513985 62:-0.39063078 63:0.58445609 64:-0.49350992 65:0.12792553 66:-0.20762177 67:-0.058716312 68:0.089717835 69:0.20722435 70:0.21414262 71:0.13618673 72:-0.22082801 73:-0.23654526 74:0.23996039 75:-0.2176691 76:-0.26315325 77:-0.30143791 78:-0.27643344 79:-0.32685718 80:0.53726172 81:-0.54014242 82:-0.48503035 83:0.18545145 84:-0.13926707 85:0.55313677 86:-0.075565696 87:0.28997248 88:0.00332462 89:-0.34804425 90:-0.40938661 91:-0.89180243 92:-0.13708836 93:0.31742126 94:-0.42148942 95:0.01120708 96:0.29089484 97:-0.34009823 98:0.57092899 99:0.078692012 100:-0.365495 #
-0.051024796714956105470051284100919 1:-0.36884812 2:-0.19837743 3:-0.62241089 4:0.51011175 5:-0.78899544 6:0.11039291 7:-0.2348792 8:0.22509181 9:-0.5936842 10:0.035442945 11:-0.46793291 12:0.56260711 13:-0.091952816 14:0.50548488 15:0.25115097 16:-0.28437629 17:-0.2537173 18:-0.21027823 19:0.18439595 20:0.41359997 21:-0.081705078 22:-0.040511951 23:-0.54701883 24:0.07610102 25:-0.21100023 26:0.74428892 27:0.20579363 28:-0.30577585 29:0.078691609 30:-0.76983494 31:-0.51096708 32:0.5954771 33:0.44744432 34:0.0083491793 35:-0.3002395 36:-0.060440239 37:0.099356323 38:-0.26697356 39:0.41422638 40:0.92436957 41:0.5078817 42:0.72271937 43:-0.31923422 44:-0.15302874 45:0.058266263 46:0.25999573 47:0.038901024 48:-0.026309254 49:0.060503103 50:-0.047937412 51:0.61739922 52:0.26151851 53:-0.57848686 54:0.26358005 55:-0.53696269 56:0.44399762 57:-0.58548039 58:-0.060734566 59:-0.49351999 60:0.80298042 61:0.53228873 62:-0.16283847 63:0.47849441 64:-0.054583713 65:0.30312818 66:0.037780046 67:-0.023336448 68:-0.11782217 69:0.17165232 70:0.19010276 71:0.022293212 72:-0.15569095 73:-0.54900682 74:0.40265426 75:0.021736328 76:-0.12243543 77:-0.7932058 78:-0.61729139 79:-0.33926645 80:-0.0068110838 81:-0.7158075 82:0.33205697 83:-0.41023412 84:-0.20111993 85:0.65727812 86:-0.34874502 87:0.20106646 88:0.057910629 89:-0.16016614 90:-0.20645532 91:-0.7089932 92:-0.24103002 93:0.55977994 94:-0.84824157 95:-0.5771715 96:-0.058850672 97:-0.79905295 98:0.93549985 99:-0.39889386 100:-0.18433368 #
-0.051024796714956105470051284100919 1:-0.87919337 2:0.17691199 3:-0.29770845 4:-0.12898979 5:-0.3488965 6:-0.061028559 7:-0.14223456 8:-0.20546468 9:-0.23911025 10:0.29399189 11:0.1238801 12:0.44450387 13:0.23887576 14:0.37110874 15:0.48725808 16:-0.70610535 17:-0.17304468 18:-0.21419728 19:-0.10647214 20:0.94003707 21:0.13773939 22:-0.028314155 23:-0.062816411 24:0.48144212 25:0.33225366 26:0.86767185 27:0.25753224 28:0.19985685 29:0.17848115 30:-0.67850846 31:-0.21586403 32:0.14656022 33:0.04044668 34:0.054144103 35:-0.61814731 36:0.038263623 37:0.23939924 38:-0.18509883 39:0.26690269 40:0.37122074 41:0.66115361 42:0.14108127 43:-0.037034668 44:-0.062262136 45:-0.13067958 46:-0.048581515 47:-0.56693447 48:0.20449141 49:0.1786706 50:-0.067317493 51:0.56728774 52:0.19817357 53:-0.12265512 54:0.16355088 55:-0.57173121 56:0.55445433 57:-0.68233818 58:0.15788698 59:-0.57238299 60:0.42596877 61:0.11695099 62:-0.063084386 63:0.7394703 64:-0.40800729 65:-0.27856103 66:0.12406532 67:0.11337408 68:0.27359226 69:0.15352175 70:0.25124562 71:-0.083499201 72:-0.26492104 73:-0.50303698 74:0.25556466 75:0.084974013 76:0.10372412 77:-1.0058113 78:-0.50478405 79:-0.026745373 80:-0.14136843 81:-0.97418123 82:0.036404841 83:-0.29304662 84:-0.1070423 85:0.84073824 86:-0.27892801 87:0.11579694 88:0.069115728 89:0.14854258 90:0.3575258 91:-0.529073 92:-0.13140786 93:-0.061534662 94:-0.63828319 95:0.15726569 96:0.27313158 97:-0.6194579 98:0.5943796 99:-0.20756589 100:0.28777397 #
-0.034417727723874566581052647507022 1:-0.86691004 2:-0.33957314 3:-0.26582387 4:0.66999155 5:-0.37310654 6:-0.53883511 7:0.063133702 8:-0.27223563 9:-0.033031754 10:0.11903097 11:-0.48353139 12:0.16645625 13:0.41563293 14:-0.10230371 15:0.73101342 16:-0.38947114 17:-0.38743407 18:-0.35891894 19:0.18489835 20:1.1366946 21:0.036472011 22:-0.42497325 23:-0.01845298 24:-0.31425413 25:0.073669687 26:0.26691347 27:0.60759068 28:-0.25412998 29:0.23491903 30:-0.27514639 31:-0.058667153 32:0.28173798 33:0.26239741 34:0.20729083 35:-0.93661588 36:-0.19653316 37:-0.32766053 38:-0.2250926 39:0.38563475 40:0.50246346 41:0.35172707 42:0.67263645 43:0.33942425 44:0.50267714 45:-0.20697935 46:0.060586866 47:-0.1928556 48:-0.32380709 49:-0.061307132 50:-0.18549454 51:0.75951785 52:0.30064386 53:-0.69548982 54:0.14098313 55:-1.0909079 56:0.63923901 57:-0.078504667 58:-0.3767311 59:-0.31341901 60:0.97660184 61:-0.0001058175 62:-0.78853059 63:0.64558434 64:-0.47022942 65:-0.35354722 66:-0.069756582 67:0.25399283 68:0.053515363 69:0.57951897 70:0.49639049 71:0.066317454 72:-0.013226701 73:-0.43101031 74:0.49188778 75:0.19851492 76:-0.091086611 77:-0.91390449 78:-0.47582141 79:-0.10831121 80:0.65449274 81:-1.2726074 82:-0.17325921 83:0.24300443 84:0.035546727 85:1.4101436 86:-0.61337233 87:0.56376654 88:0.38185418 89:0.50715452 90:-0.28405839 91:-0.31363726 92:-0.27746379 93:0.33860078 94:-0.79139578 95:0.29793122 96:-0.034168437 97:-0.45015427 98:0.82990301 99:-0.59037638 100:0.40682411 #
-0.051024796714956105470051284100919 1:-0.59410298 2:0.14251257 3:-0.3708204 4:0.00025641351 5:-0.22782488 6:0.022779763 7:-0.16032147 8:-0.20412415 9:-0.012740579 10:0.15982622 11:-0.07416603 12:0.37655428 13:-0.073081866 14:0.013337035 15:0.4940109 16:-0.53163952 17:-0.12237422 18:-0.59817475 19:-0.42955041 20:0.64004141 21:-0.03963406 22:-0.36061344 23:0.0035202494 24:0.25202963 25:-0.057278745 26:0.49345502 27:0.40388045 28:0.01737738 29:0.0045773177 30:-0.75807071 31:-0.39657417 32:0.70350039 33:0.005977273 34:-0.031685326 35:-0.49761161 36:0.18095659 37:0.46935788 38:-0.16264084 39:0.59529561 40:0.48148176 41:0.24831814 42:0.16669081 43:-0.2766768 44:0.092269927 45:0.012338482 46:0.08406958 47:-0.23057413 48:0.058797553 49:-0.11375596 50:-0.059649549 51:0.72820717 52:-0.11529379 53:0.31258354 54:-0.024347037 55:-0.54600704 56:0.86499697 57:-0.40948233 58:0.29659045 59:-0.76372921 60:0.9632985 61:-0.098537326 62:-0.24038546 63:0.44682461 64:-0.61981916 65:-0.13986935 66:0.037721321 67:0.34576553 68:-0.11550435 69:0.98538768 70:0.20668238 71:0.15104043 72:-0.26305452 73:-0.25663695 74:0.5987016 75:0.18409327 76:-0.48048869 77:-0.73931038 78:-0.15943661 79:-0.15722786 80:-0.28376657 81:-1.0366417 82:0.55110621 83:-0.50319016 84:0.087256484 85:1.0093679 86:0.020191694 87:0.11167854 88:0.026809236 89:0.35433966 90:0.04993286 91:-0.66657495 92:0.10610636 93:0.087645948 94:-0.68854719 95:-0.018639881 96:-0.22347081 97:-0.55272669 98:1.0043111 99:-0.021834325 100:-0.22156395 #
0.051024796714956105470051284100919 1:-1.040307 2:-0.53135616 3:-0.52646893 4:0.31491858 5:-0.10166227 6:-0.22386301 7:0.55108654 8:-0.23230517 9:-0.12869222 10:-0.12117268 11:-0.076363593 12:0.35435453 13:-0.19776066 14:0.21080729 15:0.29889926 16:-0.20943962 17:0.12135979 18:-0.59738481 19:-0.12253858 20:1.2263947 21:-0.26242623 22:0.047124088 23:-0.059006382 24:0.69486153 25:-0.11288498 26:0.20167206 27:0.71915287 28:-0.54421747 29:-0.26642624 30:-0.76500726 31:-1.0213025 32:0.61117643 33:0.5644297 34:-0.16625167 35:-0.53901303 36:-0.16648021 37:-0.056321856 38:-0.55951416 39:0.067194976 40:0.325028 41:0.23208418 42:0.30926964 43:-0.12456371 44:0.12240939 45:0.56529528 46:0.27580687 47:0.092021577 48:-0.31794956 49:0.10032469 50:0.40059242 51:0.02050836 52:0.33049709 53:-0.26726052 54:-0.22842605 55:-1.0107808 56:1.0648091 57:-0.29995701 58:0.46545458 59:-0.66825306 60:0.99758965 61:0.1953575 62:-0.18182994 63:0.77074593 64:-0.46002135 65:-0.48595887 66:0.27020508 67:-0.18848273 68:-0.45353353 69:0.055565942 70:0.56995004 71:0.06983427 72:0.057261799 73:-0.68907785 74:1.2321804 75:0.18938662 76:-0.3214213 77:-0.82470548 78:-0.50873953 79:-0.16362074 80:-0.31137693 81:-0.92880172 82:-0.12700832 83:-0.025646893 84:-0.26848572 85:0.65077066 86:-0.35845396 87:-0.042558111 88:-0.24794114 89:0.079573438 90:0.11342262 91:-0.32293791 92:-0.84117723 93:0.073908918 94:-0.3870374 95:0.24392396 96:0.59001327 97:-0.29211429 98:0.86768109 99:0.25657198 100:0.12687141 #
0.051024796714956105470051284100919 1:-1.1031861 2:0.36538798 3:-1.2188132 4:-0.04680562 5:0.0091630286 6:-0.0016874226 7:-0.17441058 8:-0.29095525 9:0.46362174 10:-0.061327815 11:-0.19503105 12:0.6241414 13:-0.29598927 14:-0.33545405 15:0.61621153 16:-0.69408739 17:0.10976424 18:-0.44022125 19:-0.12376697 20:0.90951741 21:-0.020507257 22:-0.14596473 23:-0.27217609 24:-0.086845428 25:-0.27112439 26:0.41973102 27:0.14506865 28:0.22675771 29:-0.11580817 30:-0.61654609 31:-0.42574087 32:0.15325403 33:-0.092807464 34:0.15377951 35:-0.32355186 36:0.18392746 37:0.27894241 38:-0.43821257 39:0.23796558 40:0.1774358 41:0.36059815 42:0.28544796 43:-0.46872002 44:0.19471338 45:0.068790071 46:0.1227626 47:-0.3770223 48:-0.32253006 49:0.30703264 50:-0.22386849 51:0.88633657 52:-0.26709321 53:-0.17181857 54:0.45699671 55:-0.46497887 56:0.8748796 57:-0.45773879 58:-0.29612389 59:-0.52807933 60:0.81641197 61:-0.14325356 62:-0.26387948 63:1.0268382 64:-0.80871999 65:-0.34274492 66:-0.1553991 67:-0.43765667 68:0.27649465 69:0.23536415 70:0.86137348 71:0.2975454 72:0.22000301 73:-0.50773817 74:0.13003138 75:0.483091 76:0.13239834 77:-1.0307759 78:-0.085077256 79:-0.20710842 80:-0.026364231 81:-1.1069661 82:0.28650379 83:-0.15479748 84:-0.2625421 85:0.82869416 86:-0.47210661 87:-0.19105056 88:0.029113758 89:-0.085110299 90:-0.1171001 91:-0.29865217 92:0.20846428 93:0.38260141 94:-0.80733383 95:-0.1039075 96:0.46071324 97:-0.34407839 98:0.78257328 99:0.19784269 100:0.40964091 #
0.051024796714956105470051284100919 1:-0.17460524 2:-0.099825643 3:-0.21986277 4:-0.077502981 5:-0.52996564 6:-0.0097902883 7:-0.20013826 8:0.055201914 9:-0.26959041 10:-0.4654465 11:-0.16923594 12:0.096441902 13:-0.16703227 14:0.2555722 15:0.21702978 16:-0.08722429 17:-0.40746394 18:-0.42378348 19:0.07496576 20:0.71013439 21:0.13566172 22:-0.31731194 23:0.11975823 24:0.19776471 25:-0.61801243 26:0.6629793 27:0.41868713 28:-0.41280368 29:0.078882888 30:-0.67631149 31:-0.47805092 32:0.42254099 33:0.57800627 34:-0.12415536 35:-0.62237287 36:-0.18953928 37:0.32139075 38:-0.38079298 39:0.1934206 40:0.20005693 41:0.33961731 42:0.26743105 43:-0.38116041 44:0.6912874 45:0.48766708 46:0.31112576 47:0.17422621 48:0.29880571 49:0.25706697 50:-0.085397042 51:0.5294944 52:-0.11403868 53:-0.53883946 54:0.13916239 55:-0.55915862 56:0.18806764 57:-0.10392579 58:-0.07639426 59:-0.53045511 60:0.22642912 61:0.1223434 62:-0.45413378 63:0.31624383 64:-0.35386488 65:-0.13672777 66:0.70792621 67:0.13436052 68:-0.1744432 69:0.10961125 70:0.095914416 71:-0.068675287 72:-0.27396283 73:-0.43116489 74:0.24226618 75:0.014498492 76:0.013387478 77:-0.81394112 78:-0.63579386 79:-0.31981814 80:0.43354598 81:-0.68006539 82:-0.037726283 83:-0.25571987 84:-0.024667528 85:0.36802843 86:-0.25184733 87:0.44842821 88:0.29260933 89:0.16478187 90:-0.074312463 91:-0.32662863 92:-0.06127483 93:0.57871985 94:-0.38403624 95:-0.025595155 96:0.010520896 97:-0.24526639 98:0.41370773 99:0.23617207 100:0.38182065 #
0.051024796714956105470051284100919 1:-0.76155627 2:-0.41407946 3:-0.49783057 4:0.33773828 5:0.059397843 6:-0.64620596 7:-0.10358744 8:-0.49355742 9:-0.0035743993 10:0.070889965 11:-0.19203505 12:0.55808616 13:-0.023819825 14:0.085442431 15:0.10847742 16:-0.89831591 17:-0.19389267 18:-0.4064028 19:0.0086082797 20:0.93328208 21:-0.38820657 22:-0.023393173 23:0.50529283 24:-0.17388612 25:-0.5334782 26:0.67710453 27:0.25402901 28:-0.50629783 29:0.63408929 30:-0.58249944 31:-0.26211753 32:-0.15744404 33:-0.13921884 34:0.06725578 35:-1.2386386 36:-0.17629464 37:-0.015304261 38:-0.55995512 39:0.3872962 40:0.45775336 41:0.72430879 42:0.74246991 43:-0.46564677 44:0.23446509 45:0.4850086 46:0.16171868 47:-0.22753696 48:-0.43896472 49:-0.57279587 50:-0.26728272 51:1.0340099 52:0.51908833 53:-0.13499583 54:-0.25032771 55:-0.72162378 56:0.43561924 57:-0.07497485 58:0.032219533 59:-0.46246442 60:0.95437372 61:-0.11369602 62:-0.30335686 63:0.66125333 64:-0.91940916 65:-0.13862592 66:-0.19970253 67:-0.1150577 68:-0.5332635 69:0.37300766 70:0.16569991 71:-0.069520786 72:0.15337224 73:-0.60136217 74:0.13460054 75:0.2733478 76:-0.49347588 77:-0.52448094 78:-0.21297243 79:0.063604414 80:0.086448357 81:-1.0023643 82:-0.12533714 83:-0.60665065 84:0.1013394 85:1.1438553 86:-0.41662481 87:0.29684797 88:1.0292636 89:0.0063877078 90:-0.0031525514 91:-0.32000473 92:-0.024131043 93:0.43364826 94:-0.71727359 95:-0.025594778 96:0.60966802 97:-0.3858515 98:1.0093282 99:0.12416764 100:0.41338247 #
-0.051024796714956105470051284100919 1:-0.76736706 2:-0.66203839 3:-0.35917681 4:-0.07940492 5:-0.43199238 6:0.28857219 7:-0.15488803 8:0.31851131 9:-0.30599815 10:0.15863335 11:-0.14196968 12:0.37243801 13:0.21079776 14:-0.69260317 15:0.34641734 16:-0.66659552 17:-0.5393067 18:-0.55092061 19:-0.18635798 20:0.40825379 21:-0.056963876 22:-0.13245539 23:0.040770669 24:-0.020352088 25:0.079164155 26:1.1808444 27:0.23277669 28:-0.042827863 29:0.014627472 30:-0.61848956 31:-0.5778749 32:0.50965905 33:0.32236475 34:0.013434177 35:-0.67411971 36:-0.13295998 37:0.54746062 38:-0.22803736 39:0.27610508 40:0.070610523 41:0.38802207 42:-0.0062361741 43:-0.30944276 44:0.0051549356 45:0.35678667 46:0.25897986 47:-0.35436159 48:-0.1933614 49:0.075562522 50:-0.12685248 51:0.38642439 52:0.34834799 53:-0.59140712 54:0.10634902 55:-0.3361468 56:0.28940088 57:0.079557158 58:-0.46875763 59:-0.25268197 60:0.84540713 61:0.14971682 62:-0.3382234 63:0.4676992 64:-0.88425732 65:-0.34953743 66:-0.12795906 67:0.39553794 68:-0.44740164 69:0.19503883 70:0.45693082 71:0.31928113 72:-0.16240522 73:0.073059656 74:0.50832587 75:0.11677877 76:0.096198216 77:-0.41272584 78:-0.29441714 79:-0.33078733 80:0.38462093 81:-0.80632073 82:0.22977868 83:0.17745002 84:-0.0073872604 85:0.44982436 86:-0.25755274 87:0.35504094 88:0.44414005 89:0.18320704 90:-0.097092792 91:-0.64179778 92:-0.44479588 93:0.21474744 94:-0.50453413 95:0.003437958 96:-0.26990479 97:-0.050412439 98:0.98240858 99:0.079995498 100:0.54698616 #
-0.051024796714956105470051284100919 1:-1.4313527 2:-0.12536268 3:-0.80595994 4:1.0806789 5:0.046885554 6:0.38811925 7:-0.25738764 8:-0.55233496 9:0.041026603 10:0.41688228 11:0.14488809 12:0.46454841 13:-0.035851173 14:-0.44434184 15:0.66132963 16:-0.92944431 17:-0.24668464 18:-1.2623309 19:-0.53646082 20:1.1190379 21:-0.37709343 22:-0.82551736 23:-0.34523067 24:0.43287453 25:0.001055921 26:1.278409 27:0.84566069 28:-0.090469196 29:0.054967903 30:-0.66114521 31:-0.22882432 32:0.78555965 33:0.17298763 34:-0.16231437 35:-0.27853036 36:1.0405649 37:0.38849151 38:-0.58394438 39:0.084747858 40:0.43104303 41:0.68018556 42:-0.29680151 43:-0.29454139 44:0.45736331 45:-0.12614818 46:0.077181533 47:-0.0084675672 48:0.056944687 49:-0.26415023 50:-0.13361004 51:1.5979391 52:-0.2053393 53:-0.071205705 54:0.52346355 55:-0.43732432 56:0.9926489 57:-0.043590423 58:-0.28983247 59:-0.75630897 60:0.72503561 61:0.30602741 62:0.15624659 63:1.1964444 64:-0.47069225 65:-0.11325102 66:0.64522231 67:0.40007541 68:-0.16254328 69:0.40342459 70:1.1776906 71:-0.014355564 72:-0.02662765 73:-0.59158558 74:0.83647138 75:0.028930688 76:0.64698815 77:-1.1384268 78:-0.56258124 79:-0.013851333 80:-0.55227995 81:-1.281981 82:0.98529983 83:-0.82535261 84:0.25638637 85:0.77260154 86:-0.026794886 87:-0.3191658 88:0.068847388 89:0.21575738 90:0.9274292 91:-0.50031382 92:-0.5144915 93:1.1382762 94:-0.31566274 95:-0.061706327 96:0.47400302 97:-0.1462872 98:0.43082923 99:0.038080666 100:0.7400735 #
-0.051024796714956105470051284100919 1:-0.21642087 2:-0.16518959 3:-0.46020931 4:-0.087134257 5:-0.6463033 6:-0.012567304 7:0.24108662 8:-0.020607624 9:-0.29960126 10:0.3536146 11:0.17315176 12:0.30042881 13:0.12079284 14:-0.29369283 15:0.67180836 16:-0.345139 17:-0.16682866 18:-0.035214107 19:-0.52897573 20:0.80833745 21:-0.44177112 22:-0.47793373 23:0.0099975001 24:-0.035084598 25:0.44574159 26:0.89604819 27:0.67981267 28:-0.29489124 29:0.77304769 30:-0.36212796 31:-0.66262585 32:0.17435467 33:0.73747104 34:0.25331393 35:-0.64849323 36:-0.34311271 37:0.13417073 38:-0.10898278 39:0.48647252 40:0.71198893 41:0.37498474 42:0.062751822 43:0.094135024 44:-0.24897146 45:-0.012344117 46:0.51962197 47:-0.0020677112 48:0.51733816 49:-0.48158917 50:0.05920637 51:0.62234324 52:0.25417811 53:-0.19509354 54:0.25924644 55:-0.7779389 56:0.73769522 57:-0.39722383 58:0.30480084 59:0.11135039 60:0.81325167 61:-0.33470961 62:-0.2465529 63:0.11365633 64:-0.89463389 65:-0.27279738 66:0.10732879 67:0.026117355 68:-0.19780444 69:0.032599352 70:0.60447901 71:-0.16186854 72:-0.16257125 73:-0.15199888 74:0.51364434 75:-0.026931999 76:-0.0052045817 77:-0.68597251 78:-0.39666206 79:-0.52874815 80:0.17411757 81:-0.89083815 82:-0.17427869 83:-0.24766368 84:-0.034125492 85:0.57471496 86:-0.5082112 87:0.62491637 88:0.5144453 89:-0.016324058 90:0.046180047 91:-0.32538775 92:-0.10492757 93:0.75259656 94:-0.74514943 95:0.18486357 96:-0.047485922 97:-0.2730903 98:1.2169051 99:0.24814911 100:0.15049937 #
-0.051024796714956105470051284100919 1:-0.68071944 2:-0.26199451 3:-0.55899453 4:0.26465988 5:-0.29497951 6:-0.80529529 7:0.06819535 8:-0.037221707 9:-0.2837908 10:0.043493051 11:-0.275374 12:0.50068164 13:0.50311977 14:-0.12813419 15:0.98182535 16:-0.72361416 17:-0.33264786 18:-0.43492776 19:-0.37823871 20:1.2841327 21:0.24647391 22:-0.51815844 23:0.70280182 24:0.030715257 25:0.25531226 26:0.99192792 27:0.14943188 28:-0.1605963 29:0.34692132 30:-1.318028 31:-0.7141577 32:0.77760857 33:-0.53139961 34:-0.014345166 35:-0.49454758 36:-0.50031012 37:0.19741118 38:-0.27893999 39:0.5254215 40:0.28679392 41:1.0445836 42:0.34577712 43:-0.36962035 44:0.20124891 45:-0.28241095 46:0.38818482 47:0.70026994 48:-0.54860586 49:0.12414438 50:0.25488734 51:1.1469283 52:-0.12440066 53:-0.29272127 54:0.098022342 55:-0.25550225 56:0.85493487 57:0.26841196 58:-0.062340543 59:-0.77913111 60:0.60876882 61:0.064741857 62:-0.18651405 63:0.55151176 64:-0.34227526 65:0.44095328 66:0.1668624 67:0.36688671 68:-0.22221491 69:-0.34652352 70:0.58239216 71:-0.13823153 72:-0.47340691 73:-0.59199983 74:0.46725836 75:-0.027949614 76:0.046097618 77:-1.0898883 78:0.10705932 79:-0.027638534 80:-0.50023884 81:-0.93523395 82:0.040466838 83:-0.558945 84:-0.27357852 85:1.5147432 86:-0.16028249 87:-0.079254717 88:0.32673657 89:-0.20555726 90:0.51661491 91:-0.71689969 92:-1.045624 93:0.35965124 94:-0.4155457 95:-0.10428955 96:0.0080317389 97:-0.19839247 98:0.78663528 99:0.031249205 100:0.80228275 #
-0.051024796714956105470051284100919 1:-0.51732039 2:0.12734061 3:-0.3076036 4:0.5494734 5:0.062747799 6:-0.10439338 7:-0.12536894 8:-0.28597099 9:-0.28996089 10:0.11319581 11:-0.18146335 12:0.73605412 13:-0.011278705 14:0.084825173 15:0.8114379 16:-0.34865385 17:-0.29865128 18:-0.46920303 19:0.16392271 20:0.80890822 21:-0.24358821 22:-0.095172018 23:0.58905154 24:0.061357744 25:-0.15931351 26:0.83274722 27:0.19339311 28:-0.069756165 29:0.27996612 30:-0.61792713 31:0.013228428 32:0.43370497 33:-0.020881068 34:0.45629972 35:-0.52084821 36:-0.20486505 37:-0.38776755 38:-0.438306 39:0.80702811 40:0.65424818 41:0.58121401 42:0.16007933 43:-0.76946241 44:0.022073641 45:0.60955518 46:0.31494007 47:-0.033831019 48:-0.0278681 49:-0.2440955 50:-0.19548677 51:0.84761435 52:-0.039180718 53:-0.22116166 54:-0.16498499 55:-0.6973573 56:0.66543794 57:-0.48521882 58:-0.35920221 59:-0.10850886 60:0.84666991 61:0.062724121 62:-0.15235585 63:0.92839813 64:-0.94376361 65:-0.073224373 66:0.55606461 67:-0.028246615 68:-0.072417863 69:-0.2966083 70:0.4505859 71:0.32242778 72:0.036341164 73:-0.30453014 74:0.28794155 75:0.2808269 76:-0.015394715 77:-0.87065011 78:-0.33062869 79:0.25938711 80:-0.35672265 81:-1.041661 82:0.07098332 83:-0.36974442 84:-0.080587804 85:1.2307705 86:0.37922665 87:0.35005572 88:0.13426936 89:0.35090625 90:0.32842094 91:0.26509568 92:0.092550941 93:1.0997483 94:-0.51081747 95:-0.63311827 96:0.36972952 97:-0.30772233 98:0.96075338 99:0.13459216 100:0.25512749 #
-0.051024796714956105470051284100919 1:-0.80972254 2:-0.17833416 3:0.29593965 4:0.63035005 5:0.066811383 6:0.038622309 7:0.37863287 8:-0.44275284 9:-0.26635981 10:-0.18260142 11:-0.29632208 12:0.47243029 13:-0.31645173 14:0.29767781 15:0.77550817 16:-0.60925633 17:-0.92832172 18:-1.0065917 19:-0.3845394 20:1.1794267 21:0.096197851 22:-0.41303641 23:0.37864125 24:-0.17689487 25:-0.22666132 26:0.59799731 27:0.074600346 28:-0.1612058 29:0.27591714 30:-0.90145385 31:-0.24255948 32:0.45201194 33:0.42157829 34:-0.038415834 35:-1.1844064 36:-0.57727319 37:0.41462323 38:-0.57629734 39:1.1014571 40:0.36173862 41:0.27952141 42:0.78195322 43:-1.0546787 44:0.47513056 45:-0.26551557 46:0.23411535 47:-0.23372689 48:-0.44896653 49:-0.9045518 50:-0.0011195285 51:0.7380082 52:0.30852261 53:-0.17070144 54:-0.10744439 55:-0.31270117 56:0.43581027 57:-0.3414838 58:0.090817243 59:-0.43844387 60:0.27238274 61:-0.5626834 62:-0.73275375 63:0.57888943 64:-0.91597027 65:0.11990365 66:0.26387432 67:-0.25494963 68:-0.14136554 69:0.24625498 70:0.78465945 71:0.55380362 72:-0.18584837 73:-0.85147429 74:0.90826207 75:0.40615538 76:-0.07597062 77:-0.66875845 78:-1.0892487 79:0.13587646 80:-0.12044945 81:-1.4358528 82:-0.29705369 83:0.088038594 84:0.44191241 85:1.0964751 86:-0.029837534 87:-0.20067841 88:0.11202064 89:0.075051144 90:0.37787929 91:-0.50417852 92:-0.97810143 93:0.41972771 94:-0.60080498 95:-0.059947774 96:-0.1411414 97:-0.58267242 98:0.30573517 99:-0.48570946 100:0.63961202 #
0.051024796714956105470051284100919 1:-0.28733841 2:-0.64611429 3:-0.13974236 4:-0.072218589 5:-0.55541843 6:-0.2027373 7:0.16125648 8:-0.14488652 9:0.18974632 10:0.11382305 11:-0.00058404746 12:0.1340411 13:-0.070132516 14:0.10154072 15:0.11874069 16:-0.47349286 17:-0.01925306 18:-0.25837189 19:-0.31263611 20:0.59228307 21:0.23798166 22:-0.13310674 23:-0.071986608 24:-0.13342018 25:-0.30935931 26:0.2914595 27:0.51506096 28:-0.13176824 29:0.11381048 30:-0.41379648 31:-0.58781934 32:-0.069144197 33:0.33637965 34:0.1485558 35:-0.18815912 36:0.12731111 37:-0.065619521 38:-0.32550862 39:0.33107823 40:0.64449805 41:0.62350595 42:0.94691312 43:-0.3640407 44:0.12786941 45:0.0022280209 46:0.2831763 47:-0.49381566 48:-0.17344041 49:0.074339494 50:-0.099753812 51:0.18146986 52:0.22322695 53:-0.028638436 54:0.38414475 55:-0.79713953 56:0.62662047 57:-0.52719921 58:-0.18454702 59:-0.32353771 60:0.57200974 61:-0.24404238 62:-0.47907346 63:0.42912555 64:-0.7323705 65:0.15086763 66:-0.022423526 67:-0.11835486 68:-0.22993302 69:0.72003049 70:0.21563171 71:0.076922089 72:-0.25242397 73:0.026580904 74:0.3696062 75:0.14150347 76:-0.35519207 77:-0.56375146 78:-0.11512422 79:-0.18030934 80:0.99722028 81:-1.164639 82:0.37741607 83:-0.024432344 84:0.073311388 85:0.63907063 86:-0.54298842 87:0.32060945 88:0.065403894 89:0.071929619 90:-0.25935167 91:-1.0231345 92:-0.026775943 93:0.13476625 94:-0.62245268 95:-0.072300814 96:0.057132103 97:-0.80332619 98:1.3876661 99:-0.33474556 100:-0.075016037 #
0.051024796714956105470051284100919 1:0.0029897382 2:-0.37954485 3:-0.18743801 4:-0.06004934 5:-0.72846335 6:-0.0031185104 7:0.0034036862 8:0.04057689 9:-0.47709477 10:0.17848849 11:0.017366271 12:0.083883137 13:0.43562764 14:0.18507506 15:0.30485839 16:0.13509971 17:0.13463242 18:-0.42174298 19:-0.09569142 20:0.52228969 21:-0.25062254 22:-0.40006262 23:-0.052462388 24:0.057697739 25:0.3280054 26:0.08994557 27:0.45147586 28:-0.14331374 29:0.22007032 30:-0.18331377 31:-0.6999054 32:-0.14612506 33:0.22067536 34:0.15745279 35:-0.30197597 36:-0.1033171 37:0.18638852 38:-0.21440896 39:0.45192519 40:0.33981603 41:0.33610958 42:0.41043979 43:0.2034366 44:0.17478518 45:0.15631483 46:0.12879124 47:-0.30177173 48:-0.15301697 49:-0.23971142 50:0.23982178 51:0.35812631 52:0.23307066 53:0.061484326 54:0.017894171 55:-0.48230168 56:0.79682553 57:-0.36107591 58:-0.066827506 59:-0.40648532 60:0.37554079 61:0.37708786 62:-0.29055026 63:0.46853456 64:-0.2692433 65:-0.096118696 66:0.09882433 67:0.079691112 68:-0.28009573 69:0.072487891 70:0.053410459 71:0.12468118 72:-0.13602668 73:-0.22798522 74:0.14973545 75:0.01835856 76:-0.34329671 77:-0.63538343 78:-0.55141056 79:-0.39409915 80:0.30453265 81:-1.0088637 82:0.057133548 83:-0.052804023 84:0.18490468 85:-0.01419433 86:-0.15230685 87:0.27971473 88:0.25251684 89:-0.098232098 90:0.097214691 91:-0.26195559 92:-0.32889807 93:0.36820555 94:-0.7373305 95:-0.15221845 96:-0.16675164 97:-0.17938493 98:0.46408972 99:-0.2895371 100:-0.12710321 #
0.051024796714956105470051284100919 1:-0.17052157 2:-0.22872804 3:-0.076463588 4:-0.10042372 5:-0.021833837 6:0.043826912 7:0.12483958 8:0.12488693 9:0.038423061 10:0.16386546 11:-0.030859694 12:0.071848683 13:-0.017952831 14:-0.10882819 15:0.23917885 16:-0.27323759 17:-0.20236948 18:0.010544982 19:0.070719287 20:0.24935788 21:0.036694475 22:-0.30861267 23:-0.32592243 24:0.23075312 25:-0.042377926 26:0.2553173 27:0.30086255 28:-0.053252514 29:-0.043810301 30:-0.20983303 31:-0.18765743 32:0.092552133 33:0.30671281 34:0.3194792 35:-0.67590636 36:-0.11638159 37:0.083453722 38:-0.13810709 39:0.14240001 40:0.47976068 41:-0.027876696 42:0.24349907 43:-0.066764727 44:0.26541325 45:-0.16019721 46:0.45658469 47:-0.063919522 48:-0.042571116 49:-0.042435765 50:0.026785631 51:0.16252266 52:0.19397336 53:-0.59328783 54:-0.07168635 55:-0.47020468 56:0.62792897 57:-0.39059478 58:-0.077765785 59:-0.14126182 60:0.61192805 61:0.21242365 62:-0.29575437 63:0.11828817 64:-0.35519069 65:-0.10439716 66:0.18108213 67:0.25824386 68:-0.37343723 69:0.20470828 70:0.34396085 71:0.2207679 72:-0.14175947 73:-0.27986661 74:0.22976695 75:-0.052176569 76:-0.052859955 77:-0.19510396 78:0.21165518 79:-0.30740759 80:0.36705759 81:-0.29014722 82:0.157454 83:0.027693659 84:-0.15725158 85:0.50111592 86:-0.20150781 87:0.22109973 88:-0.0016797569 89:0.085737273 90:-0.41013688 91:-0.32586148 92:-0.33570993 93:0.1905385 94:-0.53497523 95:0.053432044 96:0.1751954 97:-0.17079037 98:0.33428177 99:-0.030426418 100:0.22423312 #
0.051024796714956105470051284100919 1:-1.0704134 2:-0.16717039 3:0.05259857 4:-0.23385018 5:-0.52747124 6:-0.40481386 7:0.32583851 8:0.03593054 9:0.10913783 10:-0.033385221 11:0.035552844 12:0.36600769 13:-0.13065071 14:0.38077968 15:0.32121152 16:-0.61814386 17:-0.2931287 18:-0.2878941 19:-0.27924657 20:0.40848711 21:-0.19408303 22:0.47086766 23:-0.27144405 24:0.13246027 25:-0.4700346 26:0.31419492 27:0.11279114 28:0.236516 29:0.11934089 30:-0.37585092 31:-0.47680229 32:-0.07419657 33:0.5377261 34:0.017440347 35:-0.29266363 36:-0.14836204 37:0.46958148 38:-0.52630013 39:0.35988525 40:0.41497725 41:0.32403219 42:0.2872197 43:0.076123625 44:-0.0097158067 45:-0.011031094 46:-0.13465771 47:-0.10822633 48:-0.1930148 49:0.23748659 50:0.062747076 51:0.43845004 52:0.02282675 53:-0.12781778 54:0.10394687 55:-0.64511454 56:0.64726257 57:-0.48664194 58:-0.017615318 59:-0.33362228 60:0.75066453 61:0.22282362 62:-0.6113891 63:0.52950096 64:-0.22252107 65:-0.25316083 66:0.072268978 67:-0.014071437 68:0.20365618 69:0.12455062 70:0.1812014 71:0.17556028 72:-0.24835154 73:-0.20224652 74:0.19658674 75:-0.13660587 76:-0.20240471 77:-0.52451259 78:-0.35078013 79:0.039392844 80:0.5822981 81:-0.85284621 82:-0.2273972 83:-0.13179588 84:-0.1033032 85:0.64597672 86:-0.060749713 87:0.23680262 88:0.2405809 89:0.14209521 90:-0.78955323 91:-0.86190975 92:0.21941319 93:0.25470906 94:-0.84009236 95:0.33638769 96:-0.26558337 97:-0.95126688 98:0.85393775 99:-0.016152952 100:-0.1368428 #
0.051024796714956105470051284100919 1:-0.35324022 2:-0.053526949 3:-0.19263601 4:0.021633288 5:-0.23849474 6:0.11765423 7:-0.17976893 8:-0.21859659 9:0.19859302 10:-0.15240331 11:-0.020113941 12:0.17920312 13:0.00014859534 14:0.13580017 15:0.61360639 16:-0.17891678 17:0.011867694 18:-0.21392475 19:-0.28859788 20:0.58581775 21:0.023370784 22:-0.26720628 23:-0.2939536 24:-0.18694906 25:0.063409664 26:0.21189879 27:0.33882737 28:-0.13393642 29:0.031337742 30:-0.53928936 31:-0.53513163 32:-0.026384078 33:0.10909928 34:0.24073745 35:-0.33812955 36:-0.15206885 37:0.0007017405 38:-0.082645044 39:0.57224417 40:0.53501719 41:0.3125931 42:0.15483244 43:-0.13382654 44:0.050405759 45:0.11513485 46:-0.16301198 47:-0.12627532 48:0.043138038 49:-0.24929787 50:0.39025119 51:0.22098477 52:0.25397354 53:-0.11036809 54:-0.12419055 55:-0.41910267 56:0.46333313 57:-0.059563797 58:0.17094857 59:-0.23520756 60:0.33864135 61:0.20132805 62:-0.038898643 63:0.36650369 64:-0.01062561 65:0.26762429 66:0.13685079 67:-0.15469733 68:0.051282842 69:0.033681411 70:-0.021986356 71:-0.30869815 72:-0.2535699 73:0.17541252 74:0.036223415 75:-0.16234246 76:-0.0017370937 77:-0.39642137 78:-0.40340859 79:-0.24028203 80:0.40891072 81:-0.50634032 82:0.060523443 83:0.081820369 84:0.096116275 85:0.73447245 86:-0.20174703 87:0.41207376 88:0.18785138 89:-0.10934745 90:-0.30759788 91:-0.58664602 92:0.075942792 93:-0.15031718 94:-0.49704042 95:-0.2224196 96:0.14399235 97:-0.27940622 98:0.17768866 99:-0.23276119 100:0.042088583 #
-0.018910444607472758071775587040975 1:-0.054532543 2:0.077233203 3:0.013436963 4:-0.042484988 5:0.011738024 6:-0.059051208 7:-0.011451686 8:0.070815355 9:0.054399662 10:0.048362032 11:-0.046304848 12:0.13252367 13:-0.070970379 14:0.10091875 15:0.11297943 16:-0.086074941 17:-0.032582026 18:-0.020965984 19:-0.031606097 20:-0.0097927917 21:0.005940441 22:0.0074500707 23:-0.055257626 24:-0.0043185963 25:0.027573511 26:0.061398007 27:0.0041392609 28:-0.069944426 29:-0.045027502 30:0.0070537082 31:-0.043225154 32:0.060566392 33:0.0037600573 34:0.0081818933 35:-0.047350559 36:0.015635123 37:0.04788664 38:-0.096388482 39:-0.069887131 40:0.11917444 41:0.032829851 42:-0.031065559 43:-0.0078296475 44:-0.00099788897 45:-0.025942853 46:0.0055922656 47:-0.013077441 48:0.031952493 49:-0.082718022 50:0.022478802 51:-0.0051926957 52:0.017501313 53:-0.015896918 54:0.054427225 55:-0.028786099 56:0.044100087 57:-0.031569123 58:-0.016659971 59:-0.037780274 60:0.05028544 61:-0.06910526 62:-0.060446542 63:0.057185505 64:-0.017197043 65:-0.050864767 66:0.017758204 67:0.0027855155 68:-0.076023325 69:-0.013711371 70:0.016176933 71:-0.051971469 72:-0.11026242 73:-0.043784082 74:0.10686694 75:-0.048823841 76:-0.091513142 77:-0.0428624 78:0.077567749 79:-0.059342667 80:0.076612361 81:-0.015503687 82:-0.047723293 83:-0.042281415 84:-0.0043809987 85:0.10196281 86:-0.024496367 87:0.0070413463 88:-0.031857152 89:-0.098510012 90:-0.06657628 91:-0.040427782 92:-0.044264551 93:0.085163236 94:0.018678216 95:-0.085488155 96:0.037870772 97:-0.046440236 98:-0.035759706 99:-0.094767191 100:0.017454553 #
0.051024796714956105470051284100919 1:-0.35176906 2:-0.089538619 3:-0.32542923 4:0.16902624 5:-0.62556851 6:-0.1800933 7:-0.093176156 8:-0.063719153 9:-0.46110207 10:-0.17548048 11:-0.038121834 12:0.24572106 13:-0.28301102 14:-0.12739719 15:0.40328735 16:-0.080131456 17:-0.30392545 18:-0.38901833 19:-0.10946417 20:0.11575568 21:-0.1732049 22:-0.29839882 23:0.31736138 24:0.17047782 25:-0.23038192 26:1.3275543 27:0.18818285 28:-0.075592101 29:0.52335536 30:-0.70941412 31:-0.39598039 32:0.51697493 33:0.24205934 34:0.36050707 35:-0.25719079 36:-0.033127788 37:0.42413086 38:-0.50277358 39:0.44868764 40:0.093548283 41:0.55739576 42:0.18875182 43:-0.063316323 44:-0.11551217 45:0.27526233 46:0.29616958 47:-0.21738712 48:0.17662069 49:0.19688918 50:-0.46266508 51:0.675978 52:0.53830254 53:-0.38767597 54:0.064556107 55:-0.81233752 56:-0.12553309 57:-0.6066063 58:0.074878618 59:-0.67876399 60:0.4878346 61:0.83496636 62:-0.34825185 63:0.89770472 64:-0.52282828 65:-0.097108558 66:-0.085332781 67:0.35816827 68:-0.42240748 69:-0.069476373 70:0.73173517 71:0.18332279 72:0.45660239 73:-0.40425205 74:0.44220909 75:0.087879516 76:-0.17152072 77:-0.51991671 78:-0.39468825 79:-0.24358435 80:0.50782889 81:-0.90956849 82:-0.0011157808 83:-0.42741227 84:-0.066146545 85:0.41478941 86:-0.049426928 87:0.017004026 88:0.17744999 89:-0.12171274 90:0.16862176 91:-0.39537069 92:-0.25675076 93:0.46384865 94:-0.60018903 95:-0.083966762 96:-0.12136823 97:-0.5143832 98:0.74897927 99:-0.37434149 100:0.31632808 #
-0.051024796714956105470051284100919 1:-0.46004322 2:-0.212971 3:0.074428864 4:-0.01822803 5:-0.39846888 6:-0.40090635 7:-0.25004426 8:0.025740981 9:0.18668455 10:0.27084863 11:-0.11646129 12:0.22166091 13:0.14245604 14:0.055544019 15:0.48048604 16:-0.19478513 17:0.0023610555 18:-0.69235182 19:-0.19356565 20:0.52007556 21:0.28144401 22:0.22663033 23:0.449819 24:-0.10768285 25:-0.46790656 26:0.25782385 27:-0.0032414147 28:0.1137606 29:0.03820153 30:-0.37453079 31:-0.56983823 32:0.29505977 33:0.19699951 34:0.1421739 35:-0.36509141 36:0.096467555 37:0.41217375 38:-0.060353264 39:0.14495182 40:0.84766191 41:0.48431987 42:0.39203626 43:-0.0048040054 44:0.21585491 45:0.31759861 46:0.1689315 47:-0.19600905 48:-0.29940328 49:0.05071697 50:-0.0018116219 51:0.33172545 52:0.15463522 53:-0.18383871 54:0.21560818 55:-0.96279091 56:0.46802789 57:-0.29674751 58:-0.16327864 59:-0.41640157 60:0.62248576 61:-0.032354727 62:-0.46085739 63:0.37047499 64:-0.66561598 65:-0.22780275 66:-0.37387219 67:0.25898653 68:-0.13085009 69:0.3603819 70:0.4556261 71:0.093843654 72:0.15431631 73:-0.13377365 74:0.21073508 75:0.056196138 76:-0.54777038 77:-0.72292989 78:-0.50965345 79:0.095242888 80:0.53364921 81:-1.0234656 82:-0.027213734 83:-0.067743927 84:-0.13204667 85:0.092473187 86:-0.080451094 87:0.064313099 88:-0.26131576 89:0.029195627 90:-0.17749931 91:-0.87007862 92:0.023088802 93:0.32910392 94:-0.57428253 95:-0.11007822 96:0.46089584 97:-0.15364107 98:0.71777356 99:-0.019418869 100:-0.36230227 #
-0.051024796714956105470051284100919 1:-0.29480863 2:-0.45632976 3:-0.05989562 4:-0.3789736 5:-0.085076809 6:-0.090508357 7:0.037387494 8:0.11269847 9:-0.086066291 10:0.12551713 11:-0.11500905 12:0.49679419 13:0.024814725 14:-0.12259603 15:-0.138789 16:-0.50715071 17:-0.087708257 18:0.06363254 19:-0.29239738 20:0.46646419 21:-0.2054566 22:-0.35242978 23:0.21549273 24:0.29353827 25:-0.14227754 26:0.21410537 27:0.18481964 28:-0.36804664 29:-0.15014452 30:-0.34847125 31:-0.26114699 32:0.04350036 33:0.30775461 34:0.22697403 35:-0.30086011 36:-0.17981149 37:0.15894069 38:-0.16615467 39:-0.019942813 40:0.33387312 41:0.3557367 42:0.33747718 43:0.058682144 44:0.083664641 45:0.23608476 46:0.10061656 47:0.0098044667 48:-0.07687676 49:-0.25655332 50:0.28663969 51:0.22921038 52:-0.10974119 53:-0.34432569 54:-0.061719678 55:-0.24933976 56:0.30533105 57:-0.33536536 58:-0.39339846 59:-0.14262448 60:0.24849281 61:-0.068843484 62:-0.4660978 63:0.58778036 64:-0.23520713 65:-0.19880238 66:0.019104775 67:-0.17356707 68:-0.32784921 69:0.21610644 70:-0.053110667 71:0.13924436 72:0.039521258 73:-0.07187207 74:0.51050186 75:-0.48036346 76:-0.31835163 77:-0.33226174 78:-0.15498349 79:-0.086349688 80:0.24154063 81:-0.59414464 82:-0.04652074 83:0.14263655 84:-0.02201378 85:0.1733883 86:-0.16929542 87:0.22923936 88:-0.2247884 89:-0.08390002 90:-0.25238809 91:-0.26503327 92:-0.28906357 93:0.2604613 94:-0.65165466 95:0.30732706 96:0.28341958 97:-0.041105069 98:0.39292073 99:-0.051832691 100:0.0070143533 #
0.051024796714956105470051284100919 1:-0.47970745 2:-0.020491289 3:-0.087430105 4:-0.0054781004 5:-0.43036342 6:0.40162051 7:-0.11599657 8:0.040209845 9:-0.15362619 10:0.0038396192 11:0.17582436 12:0.57208818 13:0.18278508 14:0.037593279 15:0.55785 16:-0.24847655 17:-0.20329189 18:-0.35864314 19:-0.31162849 20:0.77364868 21:-0.011198841 22:-0.66712153 23:0.19953831 24:0.11436211 25:0.30593157 26:0.24893957 27:0.251445 28:-0.54530084 29:-0.12942395 30:-0.63344705 31:-0.57003635 32:0.17611751 33:0.30047694 34:0.17693728 35:-0.38449872 36:0.017590309 37:0.20151015 38:-0.26259288 39:0.27920893 40:0.33865786 41:0.48462185 42:0.036095906 43:-0.27053642 44:-0.19523786 45:0.18166849 46:-0.18255486 47:-0.18041496 48:-0.17486839 49:-0.26683748 50:0.33087125 51:0.28996265 52:0.17679013 53:-0.33034566 54:-0.03172791 55:-0.58355218 56:0.5785768 57:-0.14720017 58:0.16240875 59:-0.076518357 60:0.24265485 61:0.0093532046 62:-0.21543214 63:0.4607192 64:-0.64540458 65:-0.020417551 66:0.53805149 67:-0.46664166 68:-0.37863532 69:-0.12919299 70:0.32552665 71:0.12215824 72:-0.44281536 73:-0.54258758 74:0.57934725 75:0.089854792 76:-0.10742775 77:-0.62369967 78:-0.70702279 79:-0.12807904 80:0.31238499 81:-0.78876269 82:0.20588909 83:-0.2737309 84:-0.12107674 85:0.5766862 86:0.082237609 87:0.15230578 88:-0.16937988 89:-0.047564518 90:-0.36837992 91:-0.4199467 92:-0.36402392 93:0.1334101 94:-0.24376272 95:-0.22298291 96:0.32762846 97:-0.16423491 98:0.66649616 99:-0.29424301 100:0.098664202 #
0.051024796714956105470051284100919 1:-0.95958722 2:0.2798163 3:-0.32706761 4:0.25799897 5:-0.22248711 6:0.29635081 7:-0.35512114 8:-0.28240314 9:-0.83006394 10:0.090046883 11:0.054821309 12:0.18510695 13:0.26854241 14:0.066401288 15:0.34488323 16:-1.1272182 17:-0.12992862 18:-0.74122798 19:-0.20707746 20:0.89297402 21:-0.57850784 22:-0.11650698 23:-0.10918216 24:0.40672043 25:0.36197594 26:0.82478446 27:0.4063797 28:-0.18312407 29:0.08765503 30:-1.0989993 31:-0.0093381144 32:0.91991371 33:0.21688168 34:-0.15170835 35:0.034960382 36:0.042204492 37:0.33120322 38:-0.61262304 39:0.03616979 40:0.1339598 41:-0.074480981 42:0.43695658 43:-0.89696097 44:-0.062354092 45:-0.012876659 46:0.31493858 47:-0.050906342 48:-0.18997665 49:0.41052049 50:-0.072231472 51:1.3561226 52:-0.071118712 53:-0.56735367 54:0.1928739 55:-0.66734171 56:0.99261665 57:-0.28826222 58:-0.1958504 59:-0.65920216 60:0.60134476 61:-0.028701376 62:-0.20700134 63:0.75569981 64:-0.58917421 65:0.11597418 66:0.23830381 67:0.1196681 68:-0.087199137 69:-0.56848264 70:0.47265136 71:0.45627895 72:-0.0003142638 73:-0.50879836 74:0.93303585 75:0.091818862 76:0.22205943 77:-0.67771435 78:-0.21469437 79:0.40903246 80:-0.14531238 81:-0.5947392 82:0.079845302 83:-0.29821917 84:0.29905871 85:0.61169922 86:-0.26620468 87:0.30810922 88:0.24765512 89:0.10201143 90:0.36645859 91:-0.54143977 92:-0.40725699 93:0.33530226 94:-0.41145998 95:0.1747757 96:0.11950726 97:0.039752599 98:0.88320959 99:-0.048105583 100:0.74977523 #
0.051024796714956105470051284100919 1:-1.7959906 2:0.0023997917 3:-1.0019755 4:0.58799785 5:-0.054275785 6:-0.4995656 7:-0.10824529 8:-0.1892598 9:-0.26306742 10:-0.35673791 11:-0.27504319 12:0.61018056 13:-0.52543163 14:-0.17535432 15:0.65846139 16:-0.66093373 17:-0.69516093 18:-1.6819779 19:-0.71197087 20:1.4746192 21:0.41923672 22:-0.31345686 23:-0.52090591 24:-0.14621779 25:-0.10374773 26:0.21056762 27:0.21078879 28:-0.016411196 29:-0.2066575 30:-0.62599325 31:-0.13691442 32:1.2786121 33:0.55027175 34:0.3926594 35:0.23809846 36:0.90963751 37:0.98585713 38:-0.35946399 39:0.45175469 40:0.80165797 41:0.43594986 42:0.23082712 43:-0.15201505 44:0.30831885 45:0.52817631 46:-0.55122918 47:0.18723609 48:-0.75125825 49:-0.62454212 50:-0.81288326 51:1.3377905 52:-0.41923964 53:0.35360458 54:-0.078006729 55:-0.79190493 56:-0.30024654 57:-0.92905897 58:0.53856742 59:-0.95755184 60:1.1796474 61:0.69921565 62:0.042397197 63:0.66648096 64:-0.11323398 65:-0.00050116953 66:-0.16890419 67:-0.4317992 68:0.79734647 69:0.70175463 70:-0.26607969 71:-0.18191577 72:-0.93272531 73:-0.61110455 74:0.22481064 75:0.19610585 76:-0.63380527 77:-1.9185966 78:-1.3899573 79:0.75867987 80:0.10583548 81:-1.7559505 82:0.075917274 83:0.051608935 84:0.10552945 85:1.3199426 86:0.33593434 87:0.21948451 88:0.35007894 89:-0.0099134175 90:0.12981081 91:-0.88062155 92:1.3344802 93:-0.10638096 94:0.035882909 95:-0.3841731 96:0.68399578 97:-0.3107872 98:0.88340646 99:0.25999355 100:0.39911729 #
0.051024796714956105470051284100919 1:-0.78880638 2:-0.31092674 3:-0.43190467 4:0.75840306 5:-0.41114619 6:-0.22857004 7:-0.12144756 8:0.14293171 9:-0.20607406 10:-0.38322818 11:0.3066625 12:0.58836043 13:-0.16399424 14:-0.17167453 15:0.50122041 16:-0.36252654 17:-0.69689155 18:-0.36794239 19:-0.23954596 20:0.85077018 21:0.11268881 22:-0.066843063 23:-0.14177334 24:0.26648971 25:0.06239761 26:0.59406984 27:0.3007983 28:-0.46644589 29:-0.10278997 30:-0.72212791 31:-0.61294878 32:-0.04451102 33:0.43750024 34:0.17179716 35:-0.81382841 36:0.019018713 37:0.26788646 38:0.055078257 39:0.67573994 40:0.32175776 41:0.57253176 42:0.15413335 43:0.15858695 44:0.58132339 45:0.42168984 46:-0.10197181 47:-0.18103994 48:-0.24350514 49:-0.012773869 50:-0.076913059 51:0.74347258 52:0.11557078 53:-0.19704092 54:-0.042971499 55:-0.9284749 56:0.36209509 57:-0.47362289 58:-0.2183217 59:-0.39060849 60:0.14160497 61:-0.008894668 62:-0.78852272 63:0.85321784 64:-0.54375911 65:0.7542609 66:0.062276129 67:-0.6288569 68:-0.078884244 69:-0.075555846 70:0.12221333 71:0.045195907 72:0.13710523 73:-0.28036055 74:0.14001746 75:0.017258424 76:-0.13304743 77:-0.92165023 78:-0.82425803 79:-0.56557077 80:0.53942728 81:-1.111452 82:-0.13761315 83:0.10781569 84:0.70798576 85:0.63096601 86:-0.27020887 87:-0.13954635 88:0.24980621 89:0.15935965 90:-0.14727111 91:-0.57176232 92:0.14317165 93:0.43433836 94:-0.38096938 95:-0.44777042 96:-0.095608652 97:0.12244343 98:0.63077193 99:-0.40307164 100:0.63833821 #
-0.051024796714956105470051284100919 1:-1.1404245 2:-0.056787882 3:-0.25730571 4:0.36372167 5:-0.28281066 6:-0.29588959 7:-0.069483511 8:0.10349744 9:0.56974018 10:0.12212002 11:-0.45337936 12:-0.30553886 13:0.23614962 14:0.27460808 15:0.81600946 16:-0.33941692 17:-0.45207497 18:-0.32637554 19:0.17645566 20:0.48861751 21:-0.34223971 22:-0.42088708 23:0.35455927 24:0.040753089 25:-0.36889198 26:0.80036432 27:0.48105165 28:0.26597491 29:-0.039351597 30:-0.58807373 31:-0.32728204 32:0.6261518 33:0.25941411 34:0.080807686 35:-0.57240331 36:0.03117563 37:0.72843993 38:-0.5267387 39:0.77129179 40:0.50495225 41:0.34270683 42:0.13669913 43:-0.14765622 44:0.5235678 45:0.0017448261 46:0.2414356 47:-0.20722733 48:-0.37926117 49:0.2487223 50:-0.067373455 51:1.282963 52:0.056331862 53:0.25332221 54:0.1457908 55:-0.52167654 56:0.63747698 57:-0.040634666 58:0.10671591 59:-0.61208361 60:0.84387261 61:-0.1447054 62:0.0616078 63:0.61679971 64:-0.54377115 65:-0.27296546 66:-0.29539591 67:-0.056603719 68:-0.56440622 69:0.0079264548 70:0.72765779 71:-0.63019133 72:-0.16988887 73:-0.59399116 74:0.46647182 75:0.53637749 76:-0.24942158 77:-0.89567405 78:-0.60665834 79:-0.4856568 80:0.023493923 81:-1.3625202 82:0.12718186 83:-0.18864803 84:0.23103763 85:0.96723193 86:-0.13563488 87:-0.17030942 88:0.33826914 89:-0.36619478 90:-0.15008871 91:-0.68705529 92:-0.097209103 93:0.26021737 94:-0.51572108 95:0.065085649 96:0.15646797 97:-0.32547212 98:0.68896765 99:-0.1124876 100:0.22488298 #
-0.051024796714956105470051284100919 1:-1.9919388 2:-0.15843473 3:-0.06158217 4:0.71593934 5:-0.74994582 6:-0.19801402 7:-0.46893534 8:-0.032039825 9:-0.075377695 10:0.34892657 11:0.66684848 12:0.041747656 13:-0.77673835 14:-0.0013448574 15:0.8861329 16:-0.73378205 17:-0.21726917 18:-0.82630664 19:-0.27029863 20:1.6178282 21:0.17719667 22:0.23554257 23:-0.20373264 24:0.29639876 25:-0.34013435 26:1.1688992 27:0.64968586 28:0.4659985 29:-0.12927926 30:-0.92499411 31:-0.33684063 32:0.33571246 33:-0.014437245 34:0.22079371 35:-0.21273068 36:0.35534695 37:0.86024958 38:-0.51257575 39:-0.27085489 40:0.14561047 41:0.71490914 42:-0.097737752 43:-0.60239631 44:0.59632754 45:0.62470973 46:0.96126544 47:-0.079426281 48:-0.47409114 49:-0.3533403 50:-1.3085641 51:1.4303466 52:-0.099371977 53:0.11854375 54:-0.47572115 55:-0.53882331 56:-0.053424444 57:-0.68890733 58:0.31751803 59:-0.60779977 60:0.63910264 61:0.27372432 62:-0.92529964 63:1.2939875 64:-1.0506854 65:-0.78009576 66:-0.36478004 67:0.041287169 68:0.40097305 69:0.24574441 70:0.83915049 71:-0.24067809 72:-0.2730301 73:-0.98061031 74:0.26420301 75:0.83959597 76:-0.689143 77:-1.3972322 78:-0.92059451 79:-0.082076997 80:0.18305123 81:-1.6414785 82:0.3874352 83:0.092433825 84:0.61577123 85:1.1531312 86:-0.63547343 87:-0.60198534 88:0.55638295 89:0.57372427 90:-0.5778622 91:-1.0424777 92:0.26831815 93:-0.019194363 94:0.086101793 95:-0.36482358 96:0.043423954 97:-0.2800836 98:0.37922254 99:-0.95938897 100:-0.32220447 #
0.051024796714956105470051284100919 1:-0.552679 2:-0.12216015 3:-0.35108981 4:-0.12776598 5:0.13702597 6:-0.29511991 7:-0.4791261 8:-0.43858871 9:0.051588524 10:-0.28652081 11:0.030387048 12:0.90764195 13:0.12279178 14:0.12517451 15:0.66296804 16:-0.45887783 17:-0.10254423 18:-0.12829886 19:-0.17065066 20:0.31544107 21:0.086660393 22:-0.22067398 23:0.15581992 24:0.58988541 25:-0.24192071 26:0.17359804 27:0.23837575 28:-0.40819734 29:-0.29266915 30:-0.16982736 31:-0.4806647 32:0.37945727 33:0.60795367 34:-0.17638758 35:-0.35611758 36:0.0053614699 37:0.23194872 38:-0.59409839 39:0.34406394 40:0.077127568 41:0.37871534 42:-0.031440716 43:0.064632997 44:0.084384054 45:0.023692006 46:0.39021513 47:-0.37396574 48:-0.34317786 49:-0.49569598 50:0.026056629 51:0.3343496 52:-0.066355221 53:-0.57231569 54:0.036771968 55:-0.30028835 56:0.47674569 57:-0.12155707 58:-0.39914438 59:-0.52008456 60:0.1977168 61:0.029312035 62:-0.22013636 63:0.4543125 64:-0.63961059 65:-0.55245888 66:0.095488109 67:-0.15728945 68:0.092548922 69:0.10504811 70:0.84762812 71:0.29481533 72:0.059616398 73:-0.35127339 74:0.6659041 75:0.19442087 76:-0.22984228 77:-0.48629162 78:-0.7906763 79:-0.056891687 80:0.27077404 81:-1.4224688 82:0.052468907 83:0.26209235 84:-0.58980656 85:0.42406937 86:-0.036163673 87:0.044874426 88:0.095450319 89:0.1708018 90:-0.33375603 91:-0.99078262 92:-0.35125369 93:0.78937966 94:-0.64933068 95:0.013594899 96:0.011312193 97:-0.26082087 98:0.44770476 99:-0.48687238 100:0.25912297 #
-0.051024796714956105470051284100919 1:-0.5085234 2:-0.36761522 3:-0.85620439 4:0.095432468 5:-0.87047732 6:-0.082739577 7:-0.056990955 8:-0.63970518 9:-0.20913 10:0.009212737 11:-0.15641309 12:0.5277549 13:-0.21824887 14:0.55855292 15:0.217233 16:-0.36628515 17:-0.58330256 18:-0.29254901 19:-0.16729018 20:0.51110172 21:-0.75724906 22:-0.51086891 23:-0.36933917 24:0.36247009 25:-0.83349866 26:0.91472781 27:-0.36925822 28:-0.67315382 29:0.36552539 30:-0.82340354 31:-0.26385683 32:0.028051514 33:0.4123176 34:0.48597926 35:-0.5370881 36:-0.040465534 37:0.18955314 38:-0.81365162 39:0.54510677 40:1.1760072 41:0.12575759 42:0.58999479 43:-0.51888084 44:-0.18775573 45:0.12743376 46:0.19334157 47:-0.31934622 48:-0.21162976 49:-0.23316579 50:0.22948505 51:0.88652253 52:0.48460099 53:-0.99911624 54:0.14369692 55:-0.54048944 56:0.38057745 57:-1.2410856 58:0.062430013 59:-0.16818289 60:1.2937251 61:0.063230582 62:0.14415801 63:0.4740015 64:-0.58853239 65:0.10119243 66:0.0086506018 67:-0.36439463 68:-0.084575102 69:-0.3104606 70:-0.10570975 71:0.5158143 72:-0.54040056 73:-0.49446428 74:0.46447691 75:0.24547631 76:-0.49085665 77:-0.9305895 78:-0.10355735 79:-0.53471363 80:0.064911455 81:-1.1595907 82:-0.068116002 83:-0.29435638 84:-0.2881026 85:0.61356151 86:-0.6912716 87:0.73765105 88:0.34776998 89:0.12853125 90:0.072949804 91:-0.90049982 92:-0.16209865 93:0.68217784 94:-0.85045898 95:-0.87760597 96:0.16888823 97:-0.25996357 98:0.89398199 99:0.26450419 100:0.17563128 #
-0.051024796714956105470051284100919 1:-1.3753299 2:-0.6003834 3:-0.88051647 4:0.157487 5:-0.57521605 6:0.39957762 7:0.26357725 8:-0.72022587 9:0.17634796 10:-0.39494333 11:0.1204733 12:0.55674082 13:0.035225973 14:-0.46850067 15:-0.23268329 16:-0.44278798 17:-0.15531218 18:-0.71905726 19:-0.29084688 20:1.3167316 21:-0.6562354 22:-0.72694737 23:0.14349376 24:-0.47580609 25:0.142847 26:0.56756437 27:0.90467352 28:0.28155413 29:-0.30991566 30:-0.67481381 31:-0.92537177 32:0.34129685 33:0.59858584 34:-0.27471507 35:-0.67729908 36:0.25287518 37:0.56340283 38:-0.53224593 39:0.74040335 40:0.40785661 41:0.44540545 42:0.59261394 43:-0.22552189 44:0.32203871 45:0.49205217 46:0.56727982 47:-0.41782936 48:-0.79179281 49:-0.16106535 50:-0.16977498 51:0.45383868 52:0.60422844 53:-0.070954636 54:0.15825272 55:-0.62251127 56:0.58881199 57:-0.5739395 58:0.67494458 59:-0.19545384 60:0.22663993 61:-0.27118883 62:-0.50983608 63:0.85866362 64:-0.19685286 65:0.2136516 66:-0.087616876 67:-0.12995782 68:-0.49582803 69:0.06415537 70:0.51551533 71:0.15535225 72:-0.49031222 73:-0.45596066 74:0.58550841 75:-0.19902478 76:-0.34016865 77:-1.0959997 78:-1.0480746 79:-0.22164619 80:0.011802151 81:-1.329716 82:0.14832979 83:-0.441282 84:0.021070795 85:0.85629565 86:0.03485484 87:-0.37169603 88:0.52444661 89:-0.52142119 90:0.12110489 91:-0.079188541 92:0.056201003 93:0.72141159 94:-0.11788003 95:-0.62913609 96:0.30290455 97:0.084194511 98:1.2658302 99:0.047761533 100:0.22334763 #
-0.051024796714956105470051284100919 1:-0.93605214 2:-0.038849391 3:-0.59830642 4:0.075821899 5:-0.54914284 6:-0.61020482 7:0.29059991 8:-0.73418087 9:-0.46696201 10:0.37983251 11:-0.64225972 12:0.74734288 13:0.057200957 14:0.21808128 15:0.91363126 16:-0.31549206 17:-0.22864598 18:-0.34774682 19:-0.28125381 20:1.0506119 21:-0.30837363 22:-0.29582223 23:0.14367706 24:0.38277915 25:0.06488964 26:0.78108239 27:0.48067492 28:-0.6596306 29:0.46152699 30:-1.0102404 31:0.2616623 32:0.39682934 33:0.12378842 34:0.38012597 35:-0.87182254 36:0.4503904 37:-0.463063 38:0.078129157 39:1.0362625 40:0.81594723 41:0.85551769 42:0.36338556 43:0.12080835 44:0.14036787 45:-0.58498585 46:-0.10607377 47:0.38952929 48:-0.53934163 49:-0.49449149 50:-0.25126022 51:1.0074462 52:0.29732656 53:0.31725341 54:0.54965597 55:-0.66832066 56:0.50598389 57:-0.51761812 58:-0.41883531 59:-0.85939187 60:0.65136021 61:0.085076325 62:-0.17530005 63:1.2613858 64:-0.46677795 65:-0.14969228 66:0.21327314 67:0.23589557 68:-0.32829526 69:0.28444442 70:0.018013554 71:0.24642165 72:-0.883277 73:-1.0292723 74:0.4467763 75:-0.33427662 76:0.1625443 77:-0.89881676 78:-0.12782973 79:0.054525334 80:-0.3943691 81:-1.1646073 82:0.46441039 83:-0.86136556 84:0.19863485 85:0.44811562 86:0.28131023 87:1.0193244 88:0.67961025 89:0.2513015 90:0.068308674 91:-0.10908819 92:-0.50629586 93:0.10382763 94:-1.0813371 95:-0.50170147 96:0.63490564 97:-0.76861805 98:1.0032321 99:0.79016036 100:0.25854492 #
-0.051024796714956105470051284100919 1:-0.46317548 2:-0.19020097 3:-0.92255116 4:0.15768619 5:-0.42461932 6:-0.11892997 7:-0.072713993 8:-0.06170487 9:-0.27877435 10:0.014061437 11:0.1987879 12:0.8022005 13:0.45219937 14:-0.058963176 15:-0.31672868 16:-0.73897445 17:0.074989527 18:-0.1844375 19:0.2227798 20:0.49060351 21:-0.81380898 22:-0.85860914 23:0.3445088 24:0.096563503 25:-0.12884864 26:1.0966754 27:0.34342292 28:-0.31602684 29:0.088398404 30:-0.35109347 31:-0.13967358 32:0.72278446 33:-0.054449052 34:0.012723786 35:-0.76287526 36:0.039028637 37:-0.32896194 38:0.16066563 39:0.43887785 40:0.76675111 41:1.0018227 42:0.46511328 43:0.021438001 44:0.23645355 45:-0.025225041 46:0.015081664 47:0.054473713 48:-0.071703874 49:-0.30946854 50:0.72092474 51:0.91461301 52:0.25858063 53:0.10586195 54:-0.20741758 55:-0.89628845 56:1.2580541 57:0.047508124 58:-0.1140373 59:-0.1084923 60:0.85325795 61:0.21144357 62:-0.29236394 63:0.99411976 64:-0.11363045 65:-0.048889469 66:-0.030630782 67:0.51624954 68:-0.4687793 69:0.26682049 70:0.34520367 71:0.2572147 72:-0.33226272 73:-0.49466321 74:0.8000297 75:0.27520788 76:0.16822919 77:-0.71390039 78:-0.3190712 79:0.016287254 80:-0.057528354 81:-1.1510679 82:0.62694275 83:-0.5657286 84:-0.092568606 85:0.30588594 86:-0.58458936 87:0.49434426 88:-0.077596232 89:-0.5048784 90:0.36910659 91:-0.50911051 92:0.083561271 93:0.993586 94:-0.94579393 95:-0.14019579 96:0.32332653 97:-0.22293451 98:1.1330184 99:0.4572252 100:0.12886627 #
0.051024796714956105470051284100919 1:-0.50824332 2:-0.05208854 3:0.01181472 4:-0.3173905 5:-0.45393816 6:-0.10360501 7:-0.20132281 8:-0.137421 9:-0.47970906 10:-0.2599459 11:0.22684568 12:0.75119424 13:-0.280312 14:0.0070398697 15:0.29795125 16:-0.64440727 17:-0.12362736 18:-0.4877882 19:-0.29158708 20:0.62131166 21:-0.041228957 22:-0.11532649 23:-0.26001263 24:-0.070864789 25:-0.37470376 26:0.63992864 27:0.46574557 28:-0.25633085 29:-0.24585912 30:-0.48017836 31:-0.53792679 32:0.30969307 33:0.41013107 34:0.31846985 35:-0.26327088 36:0.0021410126 37:0.10833811 38:-0.21817449 39:0.074266039 40:0.37114221 41:0.24392956 42:0.48319298 43:0.10313831 44:-0.092535183 45:-0.087040052 46:-0.10445416 47:-0.11903111 48:-0.11050712 49:0.088213049 50:0.10795241 51:0.57619733 52:-0.067602143 53:-0.10101055 54:-0.080301635 55:-0.68490589 56:0.42891446 57:-0.34928691 58:0.19072168 59:-0.05951871 60:0.58126485 61:0.37809169 62:-0.27385837 63:0.70279741 64:-0.074283473 65:-0.016146947 66:0.14989588 67:0.19608128 68:0.13769184 69:0.053413205 70:0.18872283 71:0.17185438 72:-0.2979655 73:-0.096140809 74:0.36511475 75:-0.14508948 76:-0.27129331 77:-0.7981503 78:-0.21647519 79:-0.24370025 80:0.30743772 81:-0.59422088 82:0.29569972 83:-0.45995829 84:-0.016610239 85:0.42312077 86:0.039009154 87:0.30603999 88:0.060375378 89:-0.13484274 90:-0.53452635 91:-0.832605 92:-0.22424386 93:0.069449715 94:-0.87116158 95:-0.33083138 96:0.36180839 97:-0.31586808 98:0.4870325 99:0.28039473 100:-0.082543328 #
-0.051024796714956105470051284100919 1:-1.047392 2:-0.64871389 3:-0.50853443 4:-0.28677869 5:-0.21761546 6:-0.43543568 7:-0.0074582295 8:-0.17750187 9:0.40970272 10:0.42136282 11:0.20754342 12:0.031133331 13:0.30452356 14:0.46465066 15:0.46551248 16:-0.79873008 17:-0.50923049 18:-0.27029845 19:-0.03408315 20:1.2473679 21:0.27623644 22:-0.45628741 23:0.11502095 24:-0.090670347 25:0.20512655 26:0.47962111 27:0.34966418 28:0.017111013 29:0.27558452 30:-0.52813697 31:-0.45853901 32:0.10858606 33:0.32777175 34:0.42008275 35:-0.88627231 36:0.13972451 37:0.71097273 38:0.28969282 39:0.67587811 40:0.94343543 41:0.30372202 42:0.28496158 43:-0.55947161 44:-0.083851643 45:-0.15425551 46:0.22564548 47:0.24201661 48:-0.38991439 49:-0.0095638912 50:-0.26552996 51:1.0136714 52:0.3416892 53:-0.36727703 54:0.30555162 55:-0.69777763 56:0.9040004 57:-0.22360112 58:-0.45954496 59:-0.84952414 60:0.60374838 61:-0.48997292 62:-0.5113191 63:0.34042269 64:-1.1555797 65:0.1670268 66:-0.010077153 67:0.43587825 68:-0.38611636 69:0.5921337 70:0.72566897 71:-0.33661962 72:-0.37118235 73:-1.0032393 74:0.73784441 75:0.48783094 76:-0.3303324 77:-0.93707526 78:-0.455376 79:-0.39338484 80:0.57237262 81:-0.95398402 82:0.52947587 83:-0.17578481 84:0.017764255 85:1.315563 86:0.04894758 87:0.12760107 88:0.20833625 89:0.2935383 90:-0.44682181 91:-0.64421332 92:-0.69453418 93:-0.19380423 94:-0.88590407 95:0.40130186 96:-0.0027990562 97:-0.37847555 98:0.6074329 99:-0.13764998 100:-0.16358697 #
0.051024796714956105470051284100919 1:0.22209433 2:-0.53006065 3:-0.30261338 4:-0.40017995 5:-0.33935285 6:0.26851055 7:0.090804115 8:-0.26975799 9:-0.012192295 10:-0.057431713 11:-0.24731933 12:0.29153603 13:0.21434891 14:-0.21152288 15:0.78591996 16:-0.21049999 17:-0.25150824 18:0.077050805 19:-0.3173314 20:0.77897811 21:-0.027905773 22:-0.065642841 23:-0.38453594 24:0.2302797 25:-0.21785976 26:0.69710165 27:0.034637649 28:-0.42180896 29:0.12655887 30:-0.40861964 31:-0.97686809 32:-0.10621887 33:0.30070591 34:0.30223632 35:-0.82269371 36:-0.34178731 37:0.46041322 38:-0.087110884 39:0.19377166 40:0.46950018 41:0.55543792 42:0.082720898 43:-0.36833772 44:0.40116411 45:0.42425117 46:0.73949462 47:0.019906828 48:-0.41687536 49:-0.025719289 50:0.072220571 51:-0.19511196 52:-0.097249828 53:-0.49722302 54:-0.046042535 55:-0.43457949 56:0.89515805 57:-0.80911553 58:-0.56892669 59:-0.58778673 60:0.88656509 61:-0.28792968 62:-0.89449483 63:0.21986054 64:-0.82621014 65:-0.025436165 66:-0.083000578 67:-0.22604932 68:-0.37708947 69:0.23229747 70:0.43665996 71:0.66383713 72:-0.21757771 73:-0.32124054 74:0.91490036 75:-0.17007922 76:-0.60939425 77:-0.3892011 78:-0.080480307 79:-0.82318187 80:0.3734481 81:-1.213671 82:-0.14865749 83:0.19724056 84:-0.04404958 85:0.72420204 86:-0.65538383 87:0.27293396 88:-0.3073523 89:-0.03853878 90:-0.053711049 91:-0.70353061 92:-0.72315902 93:0.086229563 94:-0.54620737 95:-0.23836191 96:-0.40155447 97:0.29036701 98:0.46739435 99:0.053227428 100:0.33536819 #
0.051024796714956105470051284100919 1:-0.30182227 2:-0.35835156 3:0.16523942 4:0.030724974 5:-0.47324973 6:0.19322601 7:-0.15499504 8:0.094568342 9:-0.1279338 10:0.14255522 11:0.1175106 12:0.55739236 13:-0.25771493 14:-0.28008133 15:0.30849096 16:-0.36489347 17:-0.25784981 18:0.2882627 19:-0.12787719 20:0.73512846 21:0.064760588 22:-0.4770579 23:-0.3829948 24:0.25746647 25:0.032224707 26:0.626212 27:0.11305219 28:-0.41934815 29:0.39109984 30:-0.32731557 31:-0.42811042 32:0.12836418 33:0.39616302 34:0.72261798 35:-0.55555665 36:0.048898414 37:0.50079226 38:-0.39902887 39:0.24064274 40:-0.20040256 41:0.68480432 42:0.0014843926 43:-0.5046351 44:0.34432265 45:0.12056329 46:0.65297151 47:-0.091794461 48:0.3168329 49:-0.032986403 50:0.18305677 51:0.36289576 52:-0.17697383 53:-0.29324836 54:-0.25856426 55:-0.63550603 56:0.51176059 57:-0.0065533319 58:0.076222718 59:-0.46295527 60:0.20688321 61:-0.23443457 62:-0.47606447 63:0.4939121 64:-0.34402111 65:-0.38981909 66:0.089940809 67:0.55833024 68:-0.27322951 69:-0.28557423 70:0.65195167 71:0.26484644 72:0.14018589 73:-0.66532671 74:0.50399536 75:0.029111583 76:0.02183879 77:-0.38947675 78:-0.22557904 79:-0.29412746 80:0.17697079 81:-0.99804515 82:0.21290365 83:0.022136264 84:-0.48312891 85:0.57542735 86:-0.60142237 87:0.068409078 88:-0.24011038 89:-0.28215805 90:-0.38537419 91:-0.51528829 92:-0.42182153 93:0.70397264 94:-0.54845804 95:0.094715714 96:0.073386841 97:-0.09895698 98:0.35964245 99:-0.12710613 100:0.28206339 #
0.051024796714956105470051284100919 1:-0.391729 2:-0.58418638 3:-0.09761484 4:0.33503014 5:0.063732989 6:0.045962989 7:-0.24241935 8:0.22051516 9:0.11079309 10:-0.0053208047 11:-0.02538047 12:0.54000014 13:-0.14862359 14:-0.2652393 15:0.021911286 16:-0.30577278 17:-0.42826614 18:0.067341872 19:-0.033471044 20:0.43428415 21:-0.024093235 22:-0.40029889 23:0.22556783 24:-0.057594635 25:-0.046019003 26:0.3469578 27:0.16548027 28:-0.33370933 29:-0.030926177 30:-0.228691 31:-0.31215182 32:0.33851096 33:0.47282243 34:0.33094147 35:-0.6552254 36:0.046968531 37:-0.034222886 38:-0.16591147 39:0.13294131 40:-0.0043106452 41:0.33923826 42:-0.022819107 43:-0.095309496 44:0.096073337 45:0.058316387 46:0.20054208 47:0.03675361 48:-0.11568626 49:-0.34248403 50:0.28712103 51:0.2898922 52:-0.069878489 53:-0.099733889 54:-0.3932718 55:-0.44766054 56:0.17887077 57:-0.20049971 58:-0.0686239 59:0.17414562 60:0.15620224 61:-0.10236886 62:-0.086417846 63:0.32901481 64:-0.49276483 65:-0.052495979 66:0.28705686 67:0.043818586 68:-0.082427956 69:0.14834633 70:0.16945721 71:0.22736308 72:-0.24554512 73:-0.046602871 74:0.5843665 75:0.049643576 76:-0.15591946 77:-0.3932814 78:-0.54257822 79:-0.14546774 80:0.2803193 81:-0.36668101 82:0.25746319 83:0.14595854 84:-0.18295991 85:0.50401413 86:0.034652643 87:0.032412507 88:-0.39795291 89:-0.11246712 90:-0.18766132 91:-0.29566109 92:0.04166821 93:0.26535997 94:-0.43589261 95:0.083133422 96:0.47481558 97:-0.043355156 98:0.27636185 99:-0.070118129 100:0.32418895 #
-0.051024796714956105470051284100919 1:-0.34546512 2:-0.79983366 3:-0.16577797 4:0.080710985 5:-0.51781261 6:-0.20528123 7:-0.10616696 8:-0.24176703 9:0.16682337 10:-0.48849106 11:0.065272115 12:0.2842299 13:0.29256776 14:0.22635488 15:0.40045723 16:-0.44583324 17:-0.084779337 18:0.20403498 19:-0.64637911 20:0.50887996 21:0.28108755 22:-0.23558342 23:-0.1602864 24:-0.30805767 25:-0.030178392 26:0.24604569 27:-0.13862234 28:-0.96620363 29:0.63433754 30:-0.51038986 31:-0.43859354 32:-0.6249122 33:0.78120905 34:0.60776997 35:-1.4081471 36:-0.036106043 37:0.43562695 38:-0.77745044 39:0.42719489 40:0.25197342 41:1.2903501 42:0.63992554 43:-0.36913213 44:-0.19379665 45:-0.11686359 46:0.10611091 47:-0.5687812 48:-0.69093555 49:-0.13001016 50:0.096808299 51:0.25844681 52:0.15647317 53:-0.3070834 54:-0.34466821 55:-1.5875459 56:0.64980423 57:-0.52600259 58:-0.76331216 59:0.027497791 60:0.96295929 61:-0.08743798 62:-0.44261122 63:0.72879851 64:-0.44314304 65:-0.21319757 66:-0.09843152 67:-0.50569159 68:-0.47765312 69:0.7272343 70:0.51584315 71:0.1760402 72:-0.2670781 73:-0.79435885 74:1.1412122 75:0.59290892 76:-1.0664152 77:-0.60555518 78:0.25632504 79:-0.60780042 80:0.60338694 81:-1.100816 82:0.47469828 83:0.07066112 84:0.23687628 85:0.67210531 86:-0.8453052 87:0.1383052 88:0.38287917 89:0.34576172 90:-0.68310356 91:-1.0853664 92:-1.072647 93:0.55864507 94:-1.0626748 95:-0.11481009 96:-0.2764895 97:-0.91930699 98:0.61198831 99:-0.77329713 100:0.40785381 #
-0.051024796714956105470051284100919 1:-0.34271774 2:-0.36361957 3:-0.25560734 4:0.12505467 5:-0.72676086 6:-0.31101781 7:-0.3222447 8:-0.20880635 9:0.35137251 10:0.018025367 11:-0.13081071 12:0.15353425 13:0.44989225 14:0.13120085 15:0.91454488 16:-0.57490611 17:-0.35950494 18:-0.24665506 19:-0.11250063 20:0.81361991 21:0.21353756 22:-0.43689021 23:0.36016583 24:0.12813385 25:0.34047338 26:0.11271542 27:0.1672321 28:-0.47358429 29:0.7652269 30:-0.32470259 31:-0.68104255 32:-0.2591944 33:0.30561647 34:0.14062363 35:-0.5187403 36:0.17540933 37:0.15809382 38:-0.14140372 39:0.52419335 40:0.57354051 41:0.47226959 42:-0.56346339 43:0.31361607 44:0.2292729 45:0.35884425 46:-0.25644442 47:-0.13658604 48:0.27795288 49:-0.073353745 50:0.18306401 51:0.37555689 52:0.35018906 53:-0.63342685 54:-0.072105475 55:-0.39199001 56:0.62125033 57:-0.70274359 58:-0.29107901 59:-0.66470987 60:0.79666346 61:-0.3569572 62:-0.32259187 63:0.73615003 64:-0.53709847 65:0.26560318 66:0.11934143 67:-0.67200243 68:-0.11165589 69:0.51560253 70:0.40337452 71:0.087027878 72:-0.42029232 73:-0.4573645 74:0.66675997 75:0.093453638 76:-0.298343 77:-0.8215313 78:-0.078249022 79:0.18572108 80:0.85850388 81:-0.84251708 82:-0.18002081 83:0.15184036 84:-0.25070879 85:1.0705887 86:-0.24773338 87:0.72532344 88:0.10149468 89:0.25314859 90:-0.60544425 91:-0.42513931 92:-0.15092379 93:0.11213846 94:-0.44923526 95:0.20365015 96:-4.6727819e-05 97:-0.76446956 98:0.38624614 99:-0.26621088 100:0.33838132 #
-0.051024796714956105470051284100919 1:-0.22082287 2:0.070355698 3:-0.58334285 4:0.26318288 5:0.4039236 6:-0.21019205 7:-0.30085757 8:0.12209601 9:0.73754901 10:-0.17491208 11:-0.3463175 12:0.29004163 13:0.5137617 14:0.35899028 15:1.2917247 16:0.080757543 17:0.17585343 18:0.25217763 19:-0.34343949 20:1.1136332 21:0.25541219 22:-0.2130276 23:0.32193461 24:0.096949123 25:-0.26405784 26:0.22185108 27:0.56195194 28:-0.79127449 29:0.82264102 30:-0.7495144 31:-0.40139893 32:0.19655815 33:0.44797873 34:-0.23585854 35:-0.8032136 36:-0.32462966 37:-0.0031074258 38:-0.13465779 39:0.30685601 40:0.30665675 41:0.055656932 42:0.5043819 43:-0.254852 44:-0.11124767 45:0.3655681 46:-0.12070204 47:0.13568303 48:-0.22881721 49:-0.62573177 50:-0.085357659 51:0.79157108 52:-0.20217957 53:-0.30990589 54:-0.41625708 55:-0.90229839 56:0.68958014 57:-0.36508697 58:-0.42534587 59:0.15495059 60:1.172825 61:-0.41960001 62:-0.61671877 63:0.3946355 64:-0.73266029 65:-0.48470348 66:-0.32437795 67:-0.26072598 68:0.054690965 69:0.44847819 70:0.28237763 71:-0.75296748 72:0.49939293 73:-0.51557046 74:0.60943109 75:0.28545877 76:-0.85501575 77:-1.183827 78:0.0048367674 79:-0.33783439 80:0.45328242 81:-1.3133299 82:0.39134812 83:0.13846575 84:-0.13052581 85:1.0952616 86:-0.82939523 87:0.34612074 88:0.093095005 89:0.59779131 90:-0.76211196 91:-0.14960657 92:-0.42677027 93:-0.020863689 94:-1.3547757 95:0.11425237 96:0.20548877 97:0.24876983 98:-0.012095274 99:-0.33532482 100:0.55147767 #
-0.051024796714956105470051284100919 1:-0.14398117 2:-0.30514461 3:-0.7497831 4:0.078612484 5:0.077899702 6:-0.23198436 7:-0.35284635 8:-0.11913551 9:-0.012838826 10:-0.24864922 11:0.20010373 12:0.55414385 13:0.0050683166 14:-0.13058664 15:0.51095957 16:-0.34425956 17:-0.049176216 18:-0.21175274 19:-0.28048193 20:0.6261766 21:-0.19173005 22:0.20555885 23:0.18464945 24:0.21573581 25:-0.27593884 26:0.51270044 27:0.2908411 28:-1.0570259 29:0.10924029 30:-0.58044749 31:-0.18338488 32:0.079696745 33:0.14030826 34:0.16955167 35:-0.854289 36:-0.31229076 37:-0.16320737 38:-0.38840345 39:0.080112204 40:-0.074628323 41:0.28340343 42:0.41032639 43:0.096474886 44:0.24069887 45:0.35235438 46:0.21201405 47:-0.20989378 48:0.16733702 49:0.063672706 50:0.26205564 51:0.93709314 52:-0.1696931 53:-0.022801207 54:-0.29873568 55:-0.55476892 56:0.70877188 57:-0.12765688 58:-0.20867734 59:-0.46364 60:0.57210314 61:-0.001653224 62:-0.34442976 63:0.3684881 64:-0.62787688 65:-0.31736696 66:0.18086459 67:-0.30883732 68:-0.44451135 69:0.30719277 70:1.0141939 71:-0.065325402 72:0.54221344 73:-0.37411562 74:0.57255501 75:0.22824003 76:-0.13513242 77:-0.44615173 78:-0.87159908 79:-0.44493976 80:0.2843847 81:-1.3014226 82:-0.27622011 83:-0.13621221 84:-0.29037693 85:0.55789346 86:-0.17781435 87:-0.3875874 88:-0.011424756 89:0.59841275 90:-0.54743105 91:-0.45549867 92:-0.55388379 93:0.81782097 94:-0.29649389 95:-0.18508884 96:-0.047463868 97:-0.024637004 98:0.46632349 99:-0.067048259 100:0.32566619 #
-0.051024796714956105470051284100919 1:-0.31359428 2:-0.72070366 3:0.12790272 4:0.022344789 5:-0.54338413 6:-0.046446104 7:-0.080020554 8:-0.11493599 9:0.61610109 10:-0.26619819 11:0.22125393 12:0.46135989 13:0.45243433 14:-0.16126961 15:0.5794645 16:-0.22559144 17:0.28219327 18:-0.23100984 19:-0.040351897 20:0.50250375 21:-0.22068141 22:-0.056118716 23:-0.21631804 24:0.15782115 25:0.075728521 26:-0.17188223 27:0.30903336 28:-0.34606048 29:-0.033602744 30:-0.16452509 31:-0.84657609 32:0.25447032 33:0.74031258 34:0.24097791 35:-0.69747591 36:-0.48728842 37:0.38619515 38:-0.27344519 39:0.76583809 40:0.22508605 41:0.22868438 42:0.087476917 43:-0.096526109 44:0.041160163 45:0.13567963 46:0.33140323 47:-0.14440504 48:-0.19364391 49:-0.7104727 50:0.25181606 51:0.036189932 52:0.48844132 53:-0.17302912 54:-0.21258867 55:-0.67478943 56:0.98819172 57:-0.69656622 58:-0.31930891 59:0.088759348 60:0.4342536 61:-0.42964789 62:-0.61080289 63:0.79288018 64:-0.5969404 65:-0.47286269 66:0.050221298 67:-0.009952818 68:-0.43941191 69:0.43380502 70:0.22926864 71:0.28801459 72:0.29981643 73:-0.22419262 74:0.65662628 75:-0.38605982 76:-0.061622068 77:-0.43233877 78:-0.2503832 79:-0.19277461 80:0.24215473 81:-1.2992387 82:0.037818186 83:0.032638147 84:0.031632606 85:0.70410502 86:-0.37990969 87:0.1873119 88:0.19814725 89:-0.012845668 90:-0.56760186 91:-0.87792099 92:0.43484837 93:0.26446471 94:-0.56128144 95:-0.048140958 96:-0.35378748 97:-0.6597178 98:0.42954427 99:-0.50848627 100:0.013548688 #
0.051024796714956105470051284100919 1:-1.6251708 2:-0.089826643 3:-0.61377567 4:0.42927521 5:-0.52859455 6:-0.4106504 7:-0.29855481 8:-0.41093203 9:-0.42557964 10:0.53786856 11:-0.22366546 12:0.7578612 13:0.098095298 14:0.2290833 15:-0.24132913 16:-0.60650504 17:-0.25384957 18:0.14203233 19:0.067545757 20:1.129933 21:-0.072860077 22:0.37623721 23:-0.018348407 24:-0.23841503 25:-0.42410108 26:0.66305882 27:0.63857687 28:0.16672619 29:0.28311086 30:-0.7728166 31:-0.18171625 32:0.69372106 33:-0.30693704 34:0.62883258 35:-0.46632293 36:-0.21151341 37:0.54502112 38:-0.30520126 39:0.62005001 40:1.0290834 41:0.5292933 42:0.25479326 43:-0.28379557 44:0.22778133 45:0.17386098 46:-0.08748626 47:-0.014027035 48:-0.88881934 49:-0.42883703 50:0.23644255 51:1.2896192 52:0.21084037 53:0.29500818 54:0.75658733 55:-1.1624968 56:0.83155304 57:-0.92378956 58:-0.051576328 59:-0.2230418 60:1.2504308 61:0.047809832 62:-0.46226174 63:0.68098682 64:-0.01408481 65:0.29053745 66:-0.43156922 67:0.50367749 68:0.13355283 69:0.47004873 70:0.53942484 71:0.15221189 72:-0.28475076 73:-1.7204373 74:-0.0063856221 75:0.058749057 76:-0.84048975 77:-1.0438235 78:0.22878329 79:-0.54369199 80:-0.28569654 81:-1.3293742 82:-0.15494445 83:0.0079819765 84:0.12144183 85:0.89792615 86:-0.45180199 87:0.26798129 88:0.82223505 89:0.15173391 90:0.098136589 91:-0.77428073 92:0.34383589 93:0.76863664 94:-0.43801954 95:-0.49821889 96:0.026823193 97:-0.84560847 98:1.3714705 99:0.16203694 100:-0.2804499 #
0.051024796714956105470051284100919 1:-0.62672132 2:-0.32131737 3:0.00513124 4:0.31782064 5:-0.89271861 6:-0.50427932 7:0.1140812 8:-0.51553959 9:0.24002284 10:0.39695042 11:0.1749018 12:0.65529782 13:0.45538223 14:0.94306415 15:0.3324303 16:-0.652785 17:0.15763058 18:0.23159672 19:-0.4207795 20:1.3611639 21:-0.1944425 22:-0.50643694 23:-0.30125773 24:0.0089253439 25:-0.074422367 26:-0.060917038 27:0.36886755 28:0.093216889 29:0.24441987 30:-0.66697878 31:-0.99186653 32:-0.14472394 33:0.77559012 34:0.71500272 35:-0.33542866 36:-0.073358282 37:0.49401712 38:-0.34763142 39:1.3357252 40:0.79962182 41:0.98751366 42:-0.0046205991 43:-0.49055585 44:0.42239934 45:0.40587199 46:-0.24570647 47:-0.37375 48:0.16581216 49:0.22791027 50:0.1892599 51:0.55247271 52:0.27027598 53:-0.25300071 54:0.35052967 55:-0.48523188 56:0.74016118 57:-0.59860581 58:0.25056463 59:-0.40021491 60:0.75895685 61:0.26726413 62:-0.5114736 63:0.66323078 64:-0.5517565 65:-0.043808848 66:-0.18379509 67:-0.005759255 68:-0.31617606 69:0.5188759 70:0.42398849 71:-0.40199685 72:-0.715801 73:-0.83933884 74:0.37318209 75:0.020657904 76:-0.53888386 77:-0.746674 78:-0.35533288 79:-0.55360532 80:0.40971956 81:-0.90668386 82:0.28686437 83:-0.12055881 84:-0.22775757 85:0.73391616 86:-0.68928671 87:0.48190686 88:0.58937484 89:0.08772438 90:0.031254224 91:-1.0707397 92:-0.27349684 93:0.69080693 94:-0.56574732 95:0.0018789214 96:-0.40250644 97:-0.63179928 98:0.70084608 99:-0.014843537 100:0.2412347 #
0.051024796714956105470051284100919 1:-0.83755207 2:-0.2441622 3:-0.37817088 4:0.30586377 5:-0.79640466 6:0.10000221 7:-0.25899097 8:-0.078711994 9:-0.72302371 10:0.28480622 11:-0.089035153 12:0.14446478 13:-0.27429891 14:-0.0024937324 15:0.16920097 16:-1.0528955 17:-0.38093776 18:-0.16165766 19:0.077739827 20:0.86227888 21:-0.52514613 22:0.29933497 23:0.0059205191 24:-0.057126716 25:-0.4952648 26:0.82197845 27:0.22270463 28:-0.40337005 29:0.3002038 30:-0.63377988 31:-0.02728329 32:0.24888647 33:0.27416694 34:0.2107785 35:-0.66361308 36:0.15312991 37:-0.084171012 38:-0.035223428 39:0.24416597 40:0.58846021 41:0.19865693 42:0.37231833 43:-0.38458902 44:0.32133195 45:0.47877124 46:0.2257863 47:0.28543511 48:-0.11289816 49:0.091031961 50:0.22552782 51:1.059713 52:0.1296875 53:-0.41590896 54:0.038861372 55:-1.1507425 56:0.18327652 57:-0.89073026 58:-0.31814957 59:-0.41427264 60:0.82363468 61:0.18977843 62:-0.30109999 63:0.84033149 64:-0.30377746 65:0.083367348 66:0.60551441 67:-0.40451765 68:0.039912801 69:0.24869469 70:0.47366482 71:-0.21957701 72:-0.59053564 73:-0.85960585 74:0.13789158 75:-0.075156756 76:-0.29160464 77:-1.2201415 78:-0.16226272 79:-0.19084278 80:0.15392983 81:-1.6182065 82:0.63446629 83:-0.36014301 84:-0.45106688 85:1.0791601 86:0.082344882 87:0.56307548 88:0.27752852 89:0.028053144 90:-0.11440964 91:-0.83958042 92:-0.010932395 93:0.16241185 94:-0.21662302 95:-0.34094703 96:0.52360135 97:-0.42673445 98:0.62940907 99:0.17381778 100:0.3168762 #
0.051024796714956105470051284100919 1:-0.94327849 2:-0.026239997 3:-0.68189222 4:0.10838405 5:-0.78611243 6:-0.5630272 7:-0.11180954 8:-0.19123854 9:-0.45487565 10:-0.14206819 11:-0.17135426 12:0.74654931 13:0.10545173 14:-0.040495627 15:0.54373646 16:-0.19653611 17:-0.01001697 18:-0.1977565 19:0.30700853 20:1.1900538 21:-0.44672585 22:0.33964452 23:-0.13256396 24:-0.28278872 25:-1.2504033 26:0.2766349 27:0.62814832 28:-0.42693377 29:0.26779464 30:-1.2064699 31:0.56215835 32:1.0128584 33:0.11884691 34:-0.088044211 35:-0.75711924 36:-0.13130581 37:0.25480103 38:0.048137728 39:0.47934821 40:1.0107703 41:0.18200277 42:1.1043971 43:-0.16411637 44:-0.17098589 45:0.10010789 46:0.73683506 47:-0.058396477 48:-0.76858169 49:-0.27524781 50:0.1498398 51:1.0814146 52:0.18998334 53:-0.26750585 54:-0.45902327 55:-0.71430099 56:0.84217775 57:-0.071915835 58:-0.23204061 59:0.24409577 60:0.33004984 61:0.38673851 62:0.17826997 63:0.99838686 64:-0.36377484 65:-0.41544494 66:0.43472391 67:0.16309398 68:0.11129551 69:-0.34579411 70:0.26840848 71:-0.037660003 72:-0.39652371 73:-0.59910244 74:0.37917849 75:0.51988649 76:-0.13859481 77:-1.6423875 78:-0.28239331 79:-0.22745509 80:0.18041566 81:-1.5862414 82:0.67432785 83:0.066230357 84:-0.18176059 85:0.61466759 86:-0.25460404 87:-0.037865963 88:-0.32278475 89:0.042327311 90:0.045987237 91:-1.1014442 92:-0.03009953 93:0.47210911 94:-1.2487199 95:-0.85537279 96:0.28628701 97:-0.38590738 98:0.94016314 99:0.7686016 100:0.54836005 #
-0.051024796714956105470051284100919 1:-1.0975648 2:-0.21159343 3:-0.87448043 4:0.60844779 5:-0.11179277 6:0.39773196 7:-0.013551693 8:0.2036601 9:-0.46800536 10:-0.1293951 11:0.20425576 12:0.65693218 13:-0.16190013 14:0.38117814 15:0.10728484 16:-0.93995285 17:-0.68267804 18:-0.65735143 19:-0.168116 20:1.1645043 21:-0.32165077 22:-0.18856549 23:0.35133845 24:0.095276311 25:-0.036145546 26:1.0385032 27:0.32820112 28:0.10979828 29:-0.026156407 30:-1.045222 31:0.24121396 32:0.87274504 33:-0.17660585 34:0.52254802 35:-0.50305438 36:0.062393699 37:0.31063798 38:-0.025524164 39:-0.26617858 40:0.28789812 41:0.94379181 42:0.55707496 43:-0.46587569 44:-0.03861329 45:0.045442414 46:-0.094296664 47:-0.25318706 48:0.04038427 49:-0.0066703567 50:-0.87712598 51:1.4914726 52:-0.19917519 53:0.036908146 54:0.013402163 55:-0.39931169 56:0.028046612 57:-0.89915425 58:0.16756256 59:-0.16595854 60:0.87986594 61:0.68043822 62:-0.03056553 63:0.56078374 64:-0.59295613 65:-0.25744769 66:0.44972813 67:0.42098713 68:-0.079916731 69:-0.013515291 70:0.11937755 71:-0.27350312 72:2.4674273e-07 73:-0.475595 74:0.49017927 75:0.73088521 76:0.19075155 77:-1.0674758 78:-0.34300241 79:0.33293813 80:0.15838782 81:-0.87341666 82:-0.24966389 83:-0.53531915 84:-0.051733982 85:0.81849945 86:0.22672546 87:0.33496878 88:-0.41818833 89:-0.26728281 90:0.37978411 91:-0.13446791 92:-0.57253295 93:0.16341828 94:-0.57252741 95:-0.24537453 96:0.7294454 97:0.1889151 98:1.3643867 99:0.47664928 100:0.61667252 #
-0.051024796714956105470051284100919 1:-1.3011178 2:-0.010128118 3:-0.60515225 4:0.69740266 5:-0.2457073 6:-0.058400083 7:-0.018068384 8:-0.049597897 9:-0.61337751 10:0.21535681 11:-0.20188832 12:0.50483257 13:-0.29281533 14:-0.028329404 15:0.26542494 16:-0.68649381 17:-0.28433141 18:-0.6157127 19:-0.30678478 20:0.77384853 21:-0.23342973 22:-0.12968624 23:-0.30151793 24:0.016175019 25:0.21915869 26:1.1339353 27:0.76793927 28:0.67600572 29:0.20334281 30:-1.4249307 31:-0.66785055 32:1.0921527 33:-0.072380021 34:0.34319609 35:-0.60359162 36:-0.053345714 37:0.68917006 38:-0.045431685 39:0.54789567 40:0.20653184 41:0.70916116 42:0.39618507 43:-0.43301368 44:0.70338053 45:-0.086127974 46:0.12026139 47:-0.026800705 48:-0.094659701 49:0.33477983 50:-0.55561054 51:1.6433707 52:0.073383309 53:-0.20387655 54:-0.018883513 55:-0.72862971 56:0.66270536 57:-0.0053895069 58:0.36007765 59:-0.45430467 60:0.78285581 61:0.48371735 62:-0.35762885 63:0.99546367 64:-0.43537241 65:-0.093051299 66:0.26135626 67:0.45904294 68:0.2916975 69:-0.062188387 70:0.19230908 71:-0.35284799 72:-0.1526853 73:-0.65599006 74:0.53839284 75:0.20062096 76:0.23804787 77:-1.3160628 78:-0.26069701 79:0.2308951 80:-0.28038189 81:-1.2881503 82:0.24427421 83:-0.70106936 84:0.33637556 85:0.91839689 86:-0.10021064 87:-0.45161468 88:0.34645158 89:0.002506257 90:-0.0026687444 91:-0.31952417 92:-0.33567786 93:0.42503569 94:-0.5516414 95:-0.001866641 96:0.27587566 97:0.14430499 98:0.59766269 99:-0.024156837 100:-0.058404684 #
-0.051024796714956105470051284100919 1:-0.79431552 2:-0.00099614309 3:-0.6933555 4:0.46826622 5:-0.46700054 6:0.26517802 7:-0.41886953 8:-0.42655236 9:-0.34427401 10:-0.051475592 11:-0.20443992 12:0.47776219 13:0.2548247 14:0.17548467 15:0.17843154 16:-1.0102149 17:-0.35681748 18:-0.80967516 19:-0.15443589 20:1.2307106 21:-0.12176009 22:-0.85269815 23:-0.10009276 24:-0.22608154 25:0.043717075 26:0.62891603 27:0.72262871 28:-0.0071582133 29:0.31689051 30:-0.77075195 31:-0.03555847 32:0.81853062 33:0.14436068 34:-0.038632836 35:-0.68918484 36:0.29665697 37:0.33741355 38:-0.12985612 39:0.66466063 40:0.28258681 41:0.82387704 42:0.88959795 43:-0.14194947 44:0.24095753 45:-0.33578169 46:0.54768574 47:0.11380858 48:0.16856724 49:0.15023768 50:-0.29341823 51:0.90631104 52:0.17357101 53:-0.13305923 54:0.095141649 55:-0.46633336 56:1.0091075 57:0.16015427 58:0.14427286 59:-0.3658534 60:0.89112258 61:0.47283959 62:0.3357631 63:0.61941797 64:-0.36008942 65:0.2307651 66:0.29340252 67:0.10819442 68:0.15503192 69:-0.043248586 70:0.98562908 71:0.23265561 72:0.035486478 73:-0.74105382 74:0.65206826 75:-0.49483719 76:0.11957027 77:-0.9625414 78:-0.097172223 79:0.12988074 80:-0.18298452 81:-1.4318595 82:-0.078499317 83:-0.26988211 84:0.37042367 85:0.58571565 86:0.074177399 87:0.11319395 88:-0.11753395 89:-0.17495207 90:1.1360289 91:-0.30164981 92:-0.17212284 93:0.79230028 94:-1.0903199 95:-0.35227779 96:0.74111134 97:0.26460594 98:0.91223437 99:0.38269904 100:0.36723888 #
-0.051024796714956105470051284100919 1:-1.0049101 2:-0.010876518 3:-0.42945075 4:-0.048308812 5:-0.19984204 6:-0.45535412 7:-0.12756783 8:0.2000978 9:-0.037305128 10:-8.5568943e-05 11:0.033308849 12:0.35230392 13:-0.1085069 14:-0.26262555 15:0.54946953 16:-0.64848119 17:-0.21547057 18:-0.56274009 19:-0.12849131 20:0.83579922 21:-0.37724349 22:-0.60391021 23:-0.0046538287 24:0.59494174 25:-0.25228253 26:0.52016419 27:0.76536304 28:-0.6405853 29:0.34515163 30:-0.34855884 31:-0.37678799 32:0.53127205 33:-0.48011237 34:0.65290827 35:-0.46639547 36:0.20791523 37:-0.54446495 38:-0.27940696 39:0.41993052 40:0.92669177 41:0.43866727 42:0.2113381 43:-0.34960139 44:0.35571945 45:0.13718918 46:0.36934447 47:0.29591006 48:-0.2770595 49:-0.88115489 50:0.069103137 51:1.0565518 52:0.23710561 53:-0.083284996 54:0.15819968 55:-0.35700101 56:0.23852831 57:-0.3750754 58:-0.13193303 59:-0.5532881 60:0.67250252 61:0.47281277 62:-0.8643086 63:1.2928494 64:-0.23793639 65:-0.65299273 66:0.60374039 67:-0.3430981 68:-0.018872036 69:-0.10973229 70:0.54133844 71:0.047828898 72:-0.51280493 73:-0.51166707 74:0.334883 75:0.19843243 76:-0.69022131 77:-0.81790745 78:-0.074517407 79:0.36788121 80:-0.2195569 81:-1.3739319 82:0.55888891 83:-0.41726562 84:0.05918223 85:0.81103092 86:-0.2161842 87:0.098273702 88:0.36567405 89:0.2151031 90:-0.12996781 91:-0.63869864 92:0.32194716 93:0.68594813 94:-0.39462781 95:-0.30693132 96:0.7414332 97:-0.19904619 98:0.87217963 99:0.29972738 100:0.040463027 #
0.051024796714956105470051284100919 1:-0.30341688 2:-0.31009126 3:-0.21860729 4:0.070851661 5:0.058898177 6:-0.24005073 7:-0.16191977 8:0.013445014 9:-0.010163151 10:0.085485533 11:-0.15175696 12:0.62843639 13:0.4118993 14:0.090365209 15:0.42463002 16:-0.33405811 17:-0.25213495 18:-0.13184687 19:-0.49246773 20:0.33887833 21:-0.078549035 22:-0.56248146 23:-0.010555004 24:0.11757142 25:0.31760508 26:0.2235031 27:0.29879782 28:-0.64825219 29:-0.19057894 30:-0.22857332 31:-0.50008416 32:-0.10552892 33:0.2663759 34:0.2435905 35:-0.99223173 36:-0.58011729 37:0.11747127 38:-0.22621612 39:0.54955018 40:0.43004456 41:0.44603983 42:0.33255899 43:0.0034221932 44:-0.085591704 45:0.17841777 46:-0.11888984 47:-0.2753278 48:-0.1323473 49:-0.35425967 50:0.27808702 51:-0.0076998523 52:0.46413133 53:-0.44367993 54:0.17287503 55:-0.73789155 56:0.58500069 57:-0.28436637 58:-0.47490913 59:-0.14730917 60:0.56855679 61:0.27197883 62:-0.67099261 63:0.73569357 64:-0.56732893 65:-0.30651256 66:0.34192988 67:-0.39300799 68:-0.15591358 69:0.16719469 70:0.31701168 71:0.24564815 72:-0.27318195 73:-0.23932417 74:0.67507297 75:-0.26000249 76:-0.29924095 77:-0.52389628 78:-0.45597777 79:-0.11242292 80:0.73142314 81:-0.697649 82:-0.034705147 83:0.23691922 84:-0.14954314 85:0.65775985 86:-0.32259133 87:0.81840807 88:0.38070422 89:0.26682135 90:-0.50763869 91:-0.60602754 92:-0.47358283 93:0.21245727 94:-0.91341233 95:-0.42224839 96:-0.13126826 97:-0.34730363 98:0.89676112 99:-0.51895916 100:-0.0097022746 #
0.051024796714956105470051284100919 1:-0.52699763 2:-0.51138198 3:-0.31323507 4:-0.15963954 5:-0.056747302 6:0.019005181 7:-0.054015975 8:0.052981593 9:-0.095006578 10:0.020848218 11:-0.34537917 12:0.075978398 13:0.42444873 14:0.003499489 15:0.1799446 16:0.084128715 17:-0.19154993 18:-0.13436702 19:-0.012429335 20:0.14299583 21:-0.015108045 22:-0.046104483 23:0.023464579 24:0.25330681 25:-0.18031836 26:0.3925007 27:0.029041424 28:-0.52167815 29:0.075155698 30:-0.43725386 31:-0.45089883 32:-0.017942443 33:0.50191867 34:0.47448304 35:-0.78606576 36:-0.075414032 37:0.12348568 38:-0.18109891 39:0.19345482 40:0.34471068 41:0.24383025 42:0.26409817 43:-0.08927194 44:0.26243615 45:-0.11958466 46:-0.10532913 47:-0.028595496 48:-0.10953207 49:0.017469291 50:0.13128015 51:0.12826769 52:0.22461469 53:-0.27519983 54:-0.30893281 55:-0.68007386 56:0.38941997 57:-0.31056768 58:0.017437333 59:-0.04956802 60:0.33138913 61:0.065141588 62:-0.24667515 63:0.21416874 64:-0.94197875 65:-0.061491519 66:0.011573914 67:0.29604498 68:0.010755364 69:0.13223946 70:0.10131963 71:-0.13731405 72:0.41704327 73:-0.29377809 74:0.95871454 75:0.20466022 76:-0.39700651 77:-0.7489484 78:-0.45444682 79:0.032372568 80:-0.026064157 81:-0.89794624 82:0.13118231 83:0.019992767 84:0.091117375 85:0.76549554 86:-0.28025171 87:0.36420247 88:0.015369375 89:0.094856352 90:-0.54379708 91:-0.6305483 92:-0.2253225 93:0.52379155 94:-0.55281746 95:0.070083454 96:-0.24370934 97:0.27659523 98:0.70135874 99:-0.16172786 100:0.25607193 #
0.051024796714956105470051284100919 1:-0.35931766 2:-0.20318837 3:-0.3450177 4:-0.031641137 5:-0.021196473 6:-0.35019121 7:-0.095333368 8:0.040976111 9:0.25729871 10:-0.046507467 11:0.010201319 12:0.38752541 13:0.10556129 14:-0.16558793 15:0.68245488 16:-0.22398423 17:0.45790514 18:0.57804978 19:-0.20702748 20:0.35367325 21:0.23255901 22:-0.71086287 23:-0.068280578 24:0.088897407 25:0.30146769 26:0.55085528 27:0.45622882 28:-0.91620868 29:0.11883307 30:-0.57517964 31:-0.17149647 32:0.057411201 33:0.52527851 34:0.17613454 35:-0.5379622 36:-0.33292317 37:0.26400721 38:-0.43556246 39:0.46474829 40:0.27327421 41:0.3221049 42:0.34354052 43:-0.33611697 44:-0.10652156 45:0.14895557 46:0.3682074 47:0.17373848 48:0.05982551 49:-0.53474611 50:0.41014257 51:0.47609869 52:0.56666315 53:-0.41473627 54:-0.49199408 55:-0.55714482 56:0.94349921 57:-0.56944686 58:-0.56890714 59:-0.18006581 60:0.67307287 61:0.27830023 62:-0.050339904 63:0.592305 64:-0.38799873 65:-0.22322461 66:-0.36346185 67:-0.19187388 68:-0.27628988 69:0.20061313 70:0.32372916 71:0.06620957 72:0.10527899 73:-0.41650942 74:0.55265713 75:-0.094898999 76:-0.23748899 77:-0.40305316 78:-0.25131863 79:0.070724398 80:0.4642396 81:-0.53897142 82:-0.3389768 83:-0.22779697 84:-0.13582048 85:0.77960736 86:-0.4178507 87:1.058562 88:0.38062826 89:0.2925047 90:-0.23261225 91:-0.11838169 92:-0.30843303 93:0.26736754 94:-0.8460266 95:-0.43400353 96:-0.052831255 97:-0.35542616 98:0.80490702 99:-0.34124023 100:0.26895541 #
0.051024796714956105470051284100919 1:-0.47025856 2:-0.22078861 3:-0.29890603 4:-0.032511357 5:-0.30346292 6:-0.16929948 7:-0.19527526 8:-0.20632929 9:0.34921342 10:0.16037408 11:0.20787223 12:0.55542088 13:0.30547124 14:0.049232163 15:0.58312041 16:-0.33484474 17:0.21865778 18:-0.24598537 19:0.090018362 20:0.71366632 21:0.067762069 22:-0.12218522 23:-0.2440455 24:0.18637289 25:-0.39340246 26:0.47941929 27:0.096918084 28:-0.36308977 29:-0.1839021 30:-0.52660811 31:-0.54334271 32:-0.11371209 33:0.57218009 34:0.33272934 35:-0.30946007 36:0.05117701 37:0.49221423 38:-0.19967787 39:0.38443056 40:0.74786586 41:0.46773618 42:0.20422398 43:-0.081602558 44:0.20594864 45:0.32307759 46:-0.024396813 47:0.18847297 48:-0.041842904 49:-0.12616724 50:0.0520944 51:0.19292206 52:0.18812677 53:-0.4283824 54:-0.066043712 55:-0.88062418 56:0.54640472 57:-0.56786048 58:-0.078806713 59:-0.34204087 60:0.83800274 61:0.061147653 62:-0.7013433 63:0.93288755 64:-0.22837034 65:0.18497884 66:-0.2347403 67:-0.085694715 68:-0.15311342 69:0.41273588 70:0.4780421 71:-0.14758375 72:0.0025642973 73:-0.072765157 74:0.60168904 75:-0.13084643 76:-0.35094827 77:-0.66337419 78:-0.090411328 79:-0.56924129 80:0.82654685 81:-0.97973156 82:-0.15878154 83:-0.096946247 84:0.15309648 85:0.91338056 86:-0.35795873 87:0.29955441 88:0.1324328 89:0.12383316 90:-0.18769918 91:-0.57569379 92:-0.11782086 93:0.17317772 94:-1.0638084 95:0.029436914 96:-0.077018268 97:-0.30848452 98:0.59351987 99:-0.057606772 100:-0.01839086 #
0.051024796714956105470051284100919 1:-0.48989087 2:-0.22787113 3:-0.53182834 4:-0.15425245 5:-0.34644729 6:-0.23315099 7:-0.34772968 8:0.26621982 9:-0.055256739 10:-0.081935309 11:0.081729956 12:0.3575727 13:0.24075401 14:0.0061887526 15:0.76922685 16:-0.23955196 17:-0.6989339 18:-0.13875525 19:0.064959191 20:0.88796163 21:0.21887468 22:-0.044045709 23:-0.16319145 24:-0.18142581 25:0.19858497 26:0.63740396 27:0.30907679 28:-0.39460671 29:0.26203889 30:-0.52355921 31:-0.41081506 32:-0.24181795 33:0.51262802 34:-0.1771457 35:-0.36591083 36:-0.22130689 37:0.24705952 38:-0.14348628 39:0.65247345 40:0.44104826 41:0.094684191 42:0.021391995 43:-0.073574834 44:-0.03141037 45:-0.30358008 46:-0.054447804 47:-0.21055552 48:0.18357576 49:-0.25021788 50:0.71933484 51:0.23703656 52:0.051579267 53:-0.33711305 54:0.16913809 55:-0.78467578 56:0.46344492 57:-0.59919626 58:-0.047923684 59:-0.04286183 60:0.44052774 61:0.030891767 62:-0.22182418 63:0.82763171 64:-0.41513738 65:-0.035742842 66:0.006622463 67:-0.084701166 68:-0.049589492 69:0.35728145 70:-0.16857304 71:0.27023879 72:-0.53435034 73:-0.27723324 74:0.3262119 75:-0.031788327 76:-0.21279016 77:-0.63469303 78:-0.49750498 79:-0.25360328 80:0.21949075 81:-0.68872261 82:-0.40203232 83:0.081588723 84:-0.33345273 85:0.39634925 86:-0.39956689 87:0.79409665 88:0.7178967 89:0.03908493 90:-0.20486832 91:-1.3429703 92:0.1888323 93:0.10495573 94:-0.22077909 95:-0.21526834 96:0.072546765 97:-0.34871772 98:0.54126853 99:-0.15371759 100:-0.048468888 #
-0.051024796714956105470051284100919 1:-0.74544048 2:-0.11637425 3:-0.55745429 4:-0.36744004 5:-0.22727111 6:-0.46913904 7:-0.40250471 8:0.012676084 9:-0.021311931 10:0.0053551798 11:-0.044638079 12:0.73569804 13:0.51157266 14:-0.068577565 15:0.58496249 16:-0.93601334 17:-0.03636295 18:-0.052504852 19:0.029343229 20:0.87414604 21:0.02311071 22:0.039297257 23:0.14727724 24:0.021896509 25:-0.53879398 26:0.56924331 27:-0.067859061 28:-0.63945484 29:-0.18632752 30:-0.026689894 31:-0.68051744 32:0.13363194 33:0.3584139 34:0.58801615 35:-0.91998094 36:0.023432164 37:0.092255287 38:-0.0060096001 39:0.20267235 40:1.0744969 41:0.35643265 42:0.35018411 43:-0.57080764 44:-0.3297143 45:0.060099028 46:0.30806819 47:0.28860301 48:-0.3715317 49:-0.65193343 50:0.85866904 51:0.2686173 52:0.73091131 53:-0.74237466 54:-0.45073795 55:-1.1120729 56:0.6806848 57:-1.2609763 58:0.14053664 59:0.43092757 60:0.24634683 61:-0.50320596 62:-0.11040936 63:0.41368315 64:-0.99638915 65:-0.0094929738 66:-0.048379753 67:0.018592248 68:-0.10802652 69:0.19488189 70:0.63239676 71:1.2144451 72:-0.48918635 73:-0.097471543 74:0.21335308 75:0.26076597 76:-0.89581883 77:-1.0180568 78:-0.63319182 79:-0.15542039 80:0.36217266 81:-1.2034378 82:0.44031984 83:0.4417643 84:0.25465265 85:0.52251822 86:-0.18902177 87:0.75836504 88:-0.019472953 89:-0.15281005 90:0.24454622 91:-1.7483938 92:0.052310489 93:-0.14522833 94:-0.45018545 95:-0.40331337 96:-0.028109686 97:-0.26020238 98:1.1033664 99:0.27979416 100:0.53277916 #
-0.051024796714956105470051284100919 1:-0.77136779 2:-0.23822337 3:-0.39957076 4:0.036830809 5:-0.31495789 6:0.20913613 7:0.072524875 8:-0.21948823 9:-0.23279722 10:0.29367566 11:0.16069248 12:0.28507471 13:-0.20114315 14:-0.34965378 15:0.28026 16:-0.73080641 17:-0.5554536 18:-0.18067087 19:-0.23780753 20:0.8074041 21:-0.64685756 22:-0.30367702 23:-0.016673468 24:0.25957918 25:-0.28116244 26:0.75889885 27:0.3558085 28:-0.086428024 29:-0.033359326 30:-0.51614177 31:-0.20458408 32:0.27122563 33:0.075990088 34:-0.044283807 35:-0.62039405 36:0.53898323 37:0.22233625 38:-0.35859656 39:0.11886165 40:0.048934076 41:0.39643893 42:0.21841456 43:-0.57246882 44:0.32439345 45:0.13994455 46:0.14244103 47:-0.22935136 48:0.49418882 49:-0.0021888008 50:-0.21535824 51:0.62024653 52:0.30488557 53:-0.38551387 54:0.058760028 55:-0.82163239 56:0.83943248 57:-0.26698366 58:-0.067285761 59:-0.33198282 60:0.6881057 61:0.087297849 62:-0.16479591 63:0.72385198 64:-0.81141144 65:-0.33958355 66:-0.17090188 67:0.36813572 68:-0.2240971 69:0.37311113 70:0.46407673 71:-0.28916261 72:-0.33909345 73:-0.65097284 74:0.47022611 75:-0.17144255 76:0.27326018 77:-0.83622092 78:0.25273204 79:-0.037046332 80:0.031719245 81:-0.81570959 82:0.29979256 83:-0.23491021 84:-0.20856878 85:0.97029442 86:-0.46338862 87:-0.0083078882 88:0.089558005 89:-0.26214519 90:0.22737208 91:-0.063111365 92:-0.25899965 93:0.61670208 94:-0.64631373 95:0.19328439 96:0.066259794 97:-0.0017052438 98:0.380992 99:-0.35093135 100:0.56964302 #
-0.051024796714956105470051284100919 1:-0.63148463 2:-0.35724768 3:-0.28534865 4:0.36909547 5:-0.43804899 6:-0.13630316 7:0.091200531 8:-0.11529547 9:0.28470859 10:0.28005743 11:0.30558774 12:0.31178862 13:0.3631497 14:0.29723558 15:0.03908173 16:-0.3319084 17:0.0074173035 18:-0.16206813 19:-0.067749999 20:0.78165078 21:0.10675725 22:-0.030987378 23:-0.18840121 24:-0.20294806 25:-0.23014717 26:0.23309334 27:0.13144769 28:-0.52710241 29:0.16821666 30:-0.20643862 31:-0.4002898 32:-0.56777668 33:0.41990203 34:0.10952058 35:-0.38058677 36:0.16453928 37:-0.56131756 38:-0.4325403 39:0.5458743 40:0.69157833 41:0.32240361 42:0.058858186 43:0.023158489 44:0.34497505 45:-0.044066451 46:-0.30402595 47:-0.061737698 48:0.17012255 49:-0.35851431 50:0.25718689 51:0.50955725 52:-0.0046241689 53:-0.4663904 54:-0.16086879 55:-0.69438118 56:0.41821373 57:-0.44261715 58:-0.21739565 59:-0.116042 60:0.39000472 61:-0.52663511 62:-0.43037331 63:0.58854747 64:-0.38484338 65:-0.35860297 66:0.015276706 67:0.079517037 68:0.087807178 69:0.17948319 70:0.21481289 71:0.40306965 72:-0.058228031 73:0.01411198 74:0.40166283 75:-0.081964634 76:-0.18492247 77:-0.58607644 78:-0.41943276 79:-0.37149832 80:1.018525 81:-0.96606129 82:0.16003208 83:0.064134233 84:-0.11445104 85:0.794864 86:-0.33354324 87:0.51874143 88:0.11364486 89:-0.14658447 90:-0.38900176 91:-0.68675196 92:0.37077409 93:0.14301348 94:-0.73261386 95:-0.22054923 96:0.11730822 97:-0.32020739 98:0.61024809 99:-0.07658118 100:0.15523031 #
0.051024796714956105470051284100919 1:-0.71873611 2:-0.0031395585 3:0.19656427 4:0.19619516 5:-0.66858643 6:-0.40623304 7:-0.17991675 8:0.41789162 9:0.2377363 10:0.031024195 11:-0.12314065 12:0.5951528 13:-0.25044084 14:0.22195618 15:0.49402893 16:-0.3449277 17:0.0065098368 18:-0.077593945 19:-0.10021093 20:0.81302255 21:0.13975507 22:-0.20008856 23:0.020361828 24:0.024123836 25:-0.36099976 26:0.55733228 27:0.42723501 28:-0.21517418 29:0.13695116 30:-0.53305942 31:-0.5357241 32:0.46854386 33:0.5698905 34:0.18105471 35:-0.16499051 36:0.12029704 37:0.18781443 38:-0.30861846 39:0.16527703 40:0.61327338 41:0.63106501 42:0.54320526 43:0.11673415 44:-0.28501579 45:-0.05007996 46:0.46744651 47:0.02578765 48:-0.19645184 49:0.066690251 50:0.043779973 51:0.71610171 52:-0.037011456 53:-0.33768505 54:-0.17394522 55:-0.66842449 56:0.48674294 57:-0.038809188 58:-0.084742971 59:-0.46105281 60:0.71598727 61:0.33796471 62:-0.72617906 63:0.49578372 64:-0.057827856 65:0.065931886 66:-0.11976881 67:0.015921764 68:-0.1935914 69:0.024475493 70:0.38547906 71:0.16270499 72:0.26594046 73:-0.20422506 74:0.32680109 75:0.51019812 76:-0.46600637 77:-0.93128735 78:-0.49628031 79:-0.56465465 80:0.34520349 81:-1.0831101 82:0.064954147 83:0.14501445 84:0.15492529 85:0.71366906 86:-0.30248019 87:-0.16010863 88:-0.053761635 89:0.15966129 90:-0.61631602 91:-0.65201557 92:-0.25644821 93:0.39291671 94:-0.83843023 95:-0.088321343 96:0.21210052 97:-0.31974649 98:0.26843247 99:-0.21866278 100:0.35652047 #
-0.051024796714956105470051284100919 1:0.0071963952 2:-0.38754994 3:-0.30126742 4:-0.18614927 5:-0.33516651 6:-0.13874812 7:-0.20111763 8:-0.40225595 9:-0.082680851 10:-0.052827239 11:-0.18964326 12:0.6408444 13:0.23888168 14:0.018101335 15:0.57929051 16:-0.1914113 17:-0.094951525 18:0.10326704 19:-0.011052994 20:0.7721405 21:0.30481058 22:0.052139618 23:0.069594629 24:0.39828834 25:-0.16338365 26:0.42007324 27:0.20246619 28:-0.32754034 29:0.065896757 30:-0.34405673 31:-0.23326206 32:0.35238606 33:-0.0044930233 34:0.44878921 35:-0.47573778 36:-0.071604848 37:0.2178016 38:-0.4786233 39:0.15540731 40:0.41769984 41:-0.01589353 42:0.50924897 43:-0.25687918 44:0.04751312 45:0.15877499 46:0.071526259 47:-0.16148239 48:-0.34888828 49:0.080440424 50:0.20742412 51:0.40115955 52:-0.13532101 53:-0.56247097 54:0.005004046 55:-0.30845252 56:0.54052782 57:-0.35060421 58:-0.046422064 59:-0.29902199 60:0.74264199 61:0.26253229 62:-0.36018398 63:0.48001656 64:-0.51867312 65:-0.28898481 66:0.17131859 67:0.0021259009 68:0.087029025 69:0.24610408 70:0.25004843 71:0.47566715 72:-0.50691152 73:-0.73251373 74:0.056474201 75:-0.24454252 76:-0.33844575 77:-0.32286012 78:-0.33873418 79:-0.27373639 80:0.16409524 81:-1.1484597 82:0.03429668 83:-0.15902717 84:-0.92575914 85:0.87798107 86:-0.29213446 87:0.5628677 88:0.074247815 89:0.19724588 90:-0.42246041 91:-0.76660407 92:0.12045892 93:0.48192823 94:-0.77091318 95:-0.23103707 96:0.31768492 97:-0.30391577 98:0.66112924 99:-0.1700794 100:0.029475827 #
-0.051024796714956105470051284100919 1:-0.67850316 2:0.013991544 3:-0.30382597 4:-0.33017758 5:-0.43459013 6:-0.20863885 7:-0.66325498 8:-0.12030985 9:-0.21930757 10:-0.43215093 11:0.16510603 12:0.78641629 13:0.29103667 14:0.094069012 15:0.16377999 16:-0.63938147 17:-0.10985211 18:-0.20396097 19:-0.4650501 20:0.88302374 21:-0.082705297 22:0.044181921 23:-0.013404457 24:-0.32398978 25:0.035217397 26:0.40315726 27:0.33666679 28:0.12377125 29:0.12706944 30:-0.95948684 31:-0.21707454 32:0.5279333 33:0.14387468 34:0.00030233886 35:-0.21782802 36:0.06190294 37:0.16934539 38:-0.51124412 39:0.63171268 40:0.092835292 41:0.31236324 42:0.4076882 43:-0.060111858 44:-0.23767793 45:0.039506935 46:0.11330744 47:0.045183152 48:-0.11167771 49:-0.10668507 50:0.051127046 51:0.46929067 52:0.012455439 53:-0.20121452 54:-0.22917357 55:-0.80715901 56:0.34505251 57:-0.16112821 58:0.19779597 59:-0.57103878 60:0.79306358 61:0.62226135 62:-0.28643164 63:0.48184705 64:-0.53167111 65:0.11101694 66:-0.052452449 67:-0.14146048 68:0.20402077 69:0.31066483 70:0.23924978 71:-0.13507512 72:-0.61064011 73:-0.42053249 74:-0.032756805 75:0.10832789 76:-0.0034610692 77:-0.87163627 78:-0.28431413 79:-0.43624559 80:0.47161961 81:-1.0324117 82:0.20158307 83:-0.27948087 84:-0.39781925 85:0.39372873 86:-0.030421229 87:0.037235573 88:-0.045795705 89:-0.060381122 90:0.24270763 91:-0.96469378 92:0.18050896 93:0.67926645 94:-0.73182845 95:-0.3648603 96:0.1508061 97:-0.31165525 98:0.70747769 99:0.057930596 100:0.047663193 #
0.051024796714956105470051284100919 1:-1.2203183 2:-0.10021188 3:-0.7019136 4:0.60208899 5:-0.35263115 6:-0.079296045 7:-0.18468964 8:-0.023349123 9:-0.53710127 10:0.30948934 11:0.16303612 12:0.5949524 13:-0.16063479 14:-0.15675814 15:0.34436265 16:-0.53967726 17:-0.45975679 18:-0.76886386 19:-0.27826613 20:0.73412305 21:0.056099579 22:0.2877942 23:0.34029222 24:0.16393441 25:-0.21483858 26:0.48519126 27:0.2391046 28:0.43682975 29:-0.01147564 30:-1.0821683 31:-0.28925425 32:0.31882301 33:0.40559047 34:0.1002411 35:-0.81293166 36:0.16379946 37:0.65462184 38:0.035790391 39:0.16617818 40:0.28714678 41:0.67263138 42:0.61731237 43:-0.38842717 44:-0.069022462 45:0.53229928 46:0.048391849 47:0.16250813 48:0.058156412 49:0.37153718 50:0.10599114 51:1.4005164 52:0.26118204 53:-0.54818881 54:0.40106425 55:-1.0989498 56:0.29948336 57:-0.60109389 58:0.41754651 59:-0.8480953 60:1.51539 61:0.71774429 62:-0.29891488 63:0.96531898 64:0.022811748 65:-0.11186635 66:0.32957435 67:0.53803092 68:-0.044637293 69:0.1058148 70:0.29666921 71:0.020325122 72:-0.43559328 73:-0.36741546 74:0.49736574 75:0.27696595 76:0.21593435 77:-1.289271 78:-0.3300671 79:0.35493115 80:-0.11521144 81:-0.91999364 82:0.68887889 83:-0.19738688 84:0.11513264 85:1.1778347 86:0.21161699 87:0.15981899 88:0.49421352 89:0.44478989 90:0.19382274 91:-0.40246004 92:0.22351238 93:0.085759662 94:-0.86622334 95:-0.72293574 96:0.068257831 97:0.36890656 98:1.3109267 99:0.063130677 100:0.4537878 #
0.051024796714956105470051284100919 1:-0.84767592 2:-0.19477288 3:-0.39094788 4:-0.088496223 5:-0.60340655 6:-0.096693859 7:-0.23170933 8:0.025086556 9:0.037044957 10:0.25296158 11:-0.034864716 12:0.54362738 13:0.23994198 14:0.35821882 15:0.10684814 16:-0.37877849 17:0.069974154 18:-0.20499314 19:0.080509007 20:0.74952012 21:-0.075109132 22:-0.10627427 23:-0.14873652 24:-0.14625406 25:-0.41835329 26:-0.16593605 27:0.86878353 28:-0.3583481 29:0.27371052 30:-0.91654438 31:-0.10930624 32:0.45243227 33:0.40300718 34:0.33468169 35:-0.63606036 36:0.13851866 37:0.46916318 38:-0.25102559 39:0.49131343 40:0.047348347 41:0.18979223 42:0.39951205 43:-0.4408929 44:0.21864784 45:0.24578375 46:0.3089225 47:-0.18955512 48:-0.47233251 49:0.18185414 50:-0.15735762 51:0.33584097 52:-0.05066612 53:-0.22312096 54:0.081587747 55:-0.90692282 56:0.57708251 57:-0.29403824 58:0.074137807 59:-0.46673736 60:0.7688998 61:-0.10916645 62:-1.1105521 63:1.1153129 64:-0.86594844 65:-0.047945462 66:-0.033257447 67:0.29874456 68:-0.083006352 69:0.1712098 70:0.46902227 71:0.03900687 72:0.24350703 73:-0.37911296 74:0.33384916 75:0.42820567 76:-0.39885545 77:-1.1890253 78:-0.67199898 79:0.050998256 80:0.8763451 81:-1.0828742 82:0.39887226 83:0.29399458 84:-0.062556721 85:0.51737148 86:-0.36046404 87:0.099667944 88:0.27565035 89:-0.27130911 90:-0.041530158 91:-0.70047349 92:-0.33543149 93:0.21096271 94:-0.65682727 95:0.103964 96:-0.20358837 97:-0.24709421 98:0.83959109 99:-0.19111873 100:-0.29806772 #
